tree
version=v4
num_class=1
num_tree_per_iteration=1
label_index=0
max_feature_idx=29
objective=regression
feature_names=MOMO_20 MOMO_60 MOM_RATIO RSI_14 BB_POS VOL_MA_RATIO ATR_20_NORM VOLATILITY_20 BB_WIDTH HIGH_LOW_RATIO MOMO_20_rank MOMO_60_rank MOM_RATIO_rank RSI_14_rank BB_POS_rank VOL_MA_RATIO_rank ATR_20_NORM_rank VOLATILITY_20_rank BB_WIDTH_rank HIGH_LOW_RATIO_rank MOMO_20_zscore MOMO_60_zscore MOM_RATIO_zscore RSI_14_zscore BB_POS_zscore VOL_MA_RATIO_zscore ATR_20_NORM_zscore VOLATILITY_20_zscore BB_WIDTH_zscore HIGH_LOW_RATIO_zscore
feature_infos=[-0.71242205723094232:1.0436296500369497] [-0.71853057155343925:1.5892254708189437] [-5:5] [0:100] [-0.10000000000000001:1.1000000000000001] [0.024213075060532687:7.2807144785868712] [0.0035859556368551429:0.24462163030063636] [0.0020098594072021593:0.13991693337674346] [0.0078696162507484596:1] [0.0034435537675632077:0.19628986671726698] [0.0085470085470085479:1] [0.0085470085470085479:1] [0.0085470085470085479:1] [0.0085470085470085479:1] [0.0085470085470085479:1] [0.0085470085470085479:1] [0.0085470085470085479:1] [0.0085470085470085479:1] [0.0085470085470085479:1] [0.0085470085470085479:1] [-5:5] [-5:5] [-5:5] [-4.9676719708160366:4.3042468503533895] [-4.9964238140372155:5] [-4.0458282279057007:5] [-1.9687951395486258:5] [-2.0030810707243702:5] [-1.86828942560334:5] [-2.0030497429968581:5]
tree_sizes=2953 2985 3024 3011 2998 3039 3005 2994 2984 3036 2979 2993 2986 3022 3022 3034 3005 2976 3044 3029 3012 3002 2984 3014 3002 2985 2982 2998 2931 2994 2955 2980 3006 3010 2961

Tree=0
num_leaves=31
num_cat=0
split_feature=6 26 6 2 6 28 0 4 2 8 18 6 8 12 14 6 27 20 10 18 4 7 11 19 8 16 19 26 1 26
split_gain=6.23012 2.82077 1.89701 1.07113 0.937782 0.889916 0.869306 0.809235 0.665703 0.62963 0.836407 1.00143 0.773526 0.547687 0.66613 0.526312 0.995977 0.497224 0.496903 0.492861 0.485363 0.482409 0.461824 0.529329 0.518237 0.421011 0.426298 0.681321 0.352778 0.329406
threshold=0.082542043312353056 2.5180350333812767 0.026273807849961476 -0.78898515884335596 0.068658762245090293 0.57297460290778035 -0.29887274450162737 0.38562256174495307 -0.61007493425723303 0.2056873293011113 0.77973140816643383 0.051321793537370666 0.23541125831964457 0.54824932666410164 0.3640246248557138 0.049883617907569781 2.2847306137568766 0.52937327034047965 0.98698870573870578 0.61305202661826985 0.18136620257499095 0.0261898069573204 0.89699381078691431 0.40788764909580616 0.12182995563504885 0.33188405797101456 0.99141615089890966 3.0331499389212855 -0.089296553612238247 0.1990337618691855
decision_type=2 2 2 2 2 2 2 2 2 2 2 2 2 2 2 2 2 2 2 2 2 2 2 2 2 2 2 2 2 2
left_child=2 7 28 4 9 -6 8 -2 -3 17 11 12 19 -12 21 -5 25 -4 20 -11 -8 -15 23 24 -19 -17 27 -27 -1 -13
right_child=1 6 3 15 5 -7 18 -9 -10 10 13 29 -14 14 -16 16 -18 22 -20 -21 -22 -23 -24 -25 -26 26 -28 -29 -30 -31
leaf_value=0.0057966124520943919 0.01172358514175207 0.0075930338635790112 0.0057164292312950268 0.005910266724251035 0.0097658511992409318 0.0056655464188917906 0.0069683139473130208 0.0089150687451821208 0.015743679619043396 -0.00041704840211652557 0.0052774899511422793 0.0069677999374412724 -0.00044129542968935655 0.0033342738321701379 0.005217879971527185 0.0085842787885997991 0.0056036942496695561 0.0048863180251439492 0.010510860082179687 0.0050686993868236125 0.0031523642569702085 -0.006759695121116834 0.0079771835299640558 0.0050088361801728185 -0.0022196601127710503 0.0067866021283374371 0.0094348143074383783 0.0023406187705409453 0.0054978353322438188 0.00032793437088247685
leaf_weight=10643 509 184 8166 39139 242 292 119 517 29 53 4024 169 196 20 60 364 2181 39 35 180 278 29 49 116 75 2710 144 89 137772 21
leaf_count=10643 509 184 8166 39139 242 292 119 517 29 53 4024 169 196 20 60 364 2181 39 35 180 278 29 49 116 75 2710 144 89 137772 21
internal_value=0.0056388 0.00867956 0.00561423 0.00585574 0.00546956 0.00752374 0.00608861 0.0103084 0.00870275 0.00538645 0.00492604 0.00321198 0.00187359 0.00518276 0.00168557 0.00597456 0.00643312 0.00564551 0.00479969 0.00382087 0.00429619 -0.00263971 0.00356989 0.00263094 0.000211332 0.00698013 0.00678173 0.00664523 0.00551926 0.00623392
internal_weight=208444 1671 206773 58358 13731 534 645 1026 213 13197 4752 619 429 4133 109 44627 5488 8445 432 233 397 49 279 230 114 3307 2943 2799 148415 190
internal_count=208444 1671 206773 58358 13731 534 645 1026 213 13197 4752 619 429 4133 109 44627 5488 8445 432 233 397 49 279 230 114 3307 2943 2799 148415 190
is_linear=0
shrinkage=1


Tree=1
num_leaves=31
num_cat=0
split_feature=9 29 9 8 0 22 29 5 8 3 22 9 26 9 29 14 14 25 26 18 11 11 14 7 7 10 9 7 18 28
split_gain=5.04409 3.83147 1.54988 1.14413 0.842291 0.696245 1.0132 0.666945 0.683878 0.840865 1.31656 1.66522 0.647717 0.736865 0.643516 0.575939 0.404899 0.403209 0.401806 0.399936 0.391433 0.464054 0.348578 0.3323 0.341356 0.332006 0.326125 0.413287 0.321545 0.780329
threshold=0.065996213528298278 2.5330373517276175 0.023464800550440774 0.47499783392908507 -0.18699094929206941 -0.19506210546803868 3.3111631259721928 1.128460354982405 0.23541125831964457 32.142863804220426 0.2211486750853677 0.043805042514763699 -0.65261909401203833 0.05171360885477666 0.11356083620624871 0.094422340111995295 0.47344924812030081 -1.6081186489850194 -0.82229012327984552 0.87982611258473342 0.013011294261294264 0.0086581709145427312 0.28383429966432722 0.022271877690774582 0.031620083175031358 0.17902930402930406 0.040846066264496605 0.023835595629298517 0.87982611258473342 1.1389954772941455
decision_type=2 2 2 2 2 2 2 2 2 2 2 2 2 2 2 2 2 2 2 2 2 2 2 2 2 2 2 2 2 2
left_child=2 4 -1 15 -2 -5 -7 12 18 10 28 16 13 -4 -13 19 23 -17 22 -3 21 -8 -9 -12 -25 -6 -14 -28 29 -10
right_child=1 3 7 5 25 6 20 8 9 -11 11 14 26 -15 -16 17 -18 -19 -20 -21 -22 -23 -24 24 -26 -27 27 -29 -30 -31
leaf_value=-0.00011473115381603155 0.005302294274906947 0.0081958806415786973 0.00080745813994485534 -0.00013364491999819637 0.00016344662079712064 -0.0025408829150851387 0.0059115618662258923 0.00087454035835468884 -0.0015946846513424 -6.7201115763843101e-05 -0.003886602711863816 0.0042710559888898087 0.00019323070325791636 0.0038482886851837796 -0.0029707238514332431 -0.006557606309425177 -0.0046947697971840034 -0.0014167196972103594 0.00011352152063605324 0.00065350311587500419 0.004040441875501225 0.014590206524978082 -0.0040531602424295253 -0.013665436986176407 -0.007306314460260587 0.0032605695094497043 -0.0019045590929520338 0.00062822130665323979 -0.00037416716365762338 -0.011867771096294747
leaf_weight=145271 660 20 1030 157 101 43 43 54 244 2068 20 48 36381 247 85 41 65 547 12474 145 96 24 107 51 36 604 165 6751 846 20
leaf_count=145271 660 20 1030 157 101 43 43 54 244 2068 20 48 36381 247 85 41 65 547 12474 145 96 24 107 51 36 604 165 6751 846 20
internal_value=9.18451e-07 0.00224195 -2.60767e-05 6.8882e-05 0.00401861 0.00237467 0.00428634 0.000186125 -8.95104e-05 -0.000709829 -0.00164902 -0.00455855 0.000285795 0.00139562 -0.000357149 -0.00104267 -0.00780731 -0.00177518 8.14883e-05 0.00156773 0.00608739 0.00902033 -0.00240039 -0.0096981 -0.0110341 0.00281687 0.000253061 0.000567795 -0.000849553 -0.00237295
internal_weight=208444 2481 205963 1116 1365 363 206 60692 16118 3483 1415 305 44574 1277 133 753 172 588 12635 165 163 67 161 107 87 705 43297 6916 1110 264
internal_count=208444 2481 205963 1116 1365 363 206 60692 16118 3483 1415 305 44574 1277 133 753 172 588 12635 165 163 67 161 107 87 705 43297 6916 1110 264
is_linear=0
shrinkage=0.05


Tree=2
num_leaves=31
num_cat=0
split_feature=9 29 1 21 8 12 1 1 4 2 29 2 5 8 12 9 23 4 2 1 11 9 4 21 21 9 1 26 8 4
split_gain=4.55764 2.61018 1.55534 1.60844 0.863678 0.887594 0.816602 0.66492 0.649771 0.640619 0.599342 0.508763 0.57329 0.595808 0.695356 0.652416 0.526641 0.488608 0.460221 0.449325 1.1132 0.427652 0.403396 0.387262 0.386064 0.382488 0.36828 0.473269 0.449328 0.359831
threshold=0.072319909237868782 2.6908337390674713 -0.095842864532149283 -0.32386578839718982 0.47499783392908507 0.46291208791208799 0.23567796223841234 -0.21052629249410418 0.33035780147452148 0.12247910694771419 3.6410454669288432 -0.75195844651090593 1.1054331337008156 0.21564150316667821 0.33188405797101456 0.054344624818186138 -0.98219685511748367 0.1190655863080967 1.7112089254611111 -0.21052629249410418 0.06060719640179911 0.046309168071776118 0.42730094537564794 1.4894180832530288 0.39183081509831524 0.065996213528298278 0.65727683234146017 4.7947439441779887 0.47499783392908507 0.18136620257499095
decision_type=2 2 2 2 2 2 2 2 2 2 2 2 2 2 2 2 2 2 2 2 2 2 2 2 2 2 2 2 2 2
left_child=2 8 3 11 29 22 18 -5 -2 -8 -7 12 -1 -14 -15 16 -16 21 23 20 -13 -18 -6 25 -20 -4 -11 28 -28 -3
right_child=1 4 6 7 5 10 9 -9 -10 26 -12 19 13 14 15 -17 17 -19 24 -21 -22 -23 -24 -25 -26 -27 27 -29 -30 -31
leaf_value=0.00017727002134494969 0.0058391445615817916 0.0006943670377950184 -0.00015035157780092208 0.0039894126473264896 0.001134037579762984 -0.00098317546340135438 0.0008784716917482247 0.0011410052200380623 0.0032086071296636774 1.1024106597645297e-05 0.0076142372955750361 6.2608769058185808e-05 -6.2580466427089037e-05 -0.00051648637773068519 -0.0025821015511100012 0.00077718783286400144 -0.0099572386729379521 -0.0021414384686764569 2.6863978795168888e-05 0.00014706026836596798 0.0015599979170868358 -0.002379099844256416 -0.0055151723049305101 0.00034254841805150707 0.00063223953331931356 0.0029585898982012891 0.0022817272870612007 -0.003217959620330172 -0.0015283381408864997 -0.0023215293087349292
leaf_weight=2537 393 160 142266 218 147 26 3557 3405 583 8986 92 2942 887 465 221 82 83 47 16634 14258 2147 24 27 4137 3129 99 487 54 92 259
leaf_count=2537 393 160 142266 218 147 26 3557 3405 583 8986 92 2942 887 465 221 82 83 47 16634 14258 2147 24 27 4137 3129 99 487 54 92 259
internal_value=8.72525e-07 0.00258919 -2.02464e-05 0.000331237 0.0002849 0.0023724 -7.37521e-05 0.0013124 0.00426783 0.000305147 0.00571989 0.000181203 -0.000307651 -0.000987721 -0.00187774 -0.00326283 -0.00414624 -0.00639089 -0.000103779 0.000291016 0.000694343 -0.00825747 0.000102264 -0.000134332 0.000122711 -0.00014819 9.31372e-05 0.00125881 0.00167633 -0.00116987
internal_weight=208444 1687 206757 27316 711 292 179441 3623 976 13176 118 23693 4346 1809 922 457 375 154 166265 19347 5089 107 174 146502 19763 142365 9619 633 579 419
internal_count=208444 1687 206757 27316 711 292 179441 3623 976 13176 118 23693 4346 1809 922 457 375 154 166265 19347 5089 107 174 146502 19763 142365 9619 633 579 419
is_linear=0
shrinkage=0.05


Tree=3
num_leaves=31
num_cat=0
split_feature=6 29 6 8 5 0 0 28 1 11 12 29 1 8 8 12 9 24 8 1 18 23 9 20 1 3 11 25 16 10
split_gain=4.62258 2.82589 1.30557 0.787974 0.752947 0.722275 0.690279 0.664805 0.531229 0.765968 0.497491 0.775169 0.514898 0.493015 0.455256 0.66089 0.863389 0.441844 0.443129 0.434948 0.374674 0.371748 0.365938 0.351041 0.349385 0.336226 0.321904 0.447641 0.31771 0.308711
threshold=0.074574500592989659 2.5330373517276175 0.025991522461986667 0.47499783392908507 1.128460354982405 -0.096916052056587307 -0.12858387796924267 -1.0138654768610582 -0.15033950053851106 0.20524267399267401 0.46291208791208799 3.6410454669288432 0.076589301515563771 0.088107482407083285 0.22666104386403677 0.49786324786324793 0.043805042514763699 -0.51306019644244316 0.2849726998324133 0.3845694206654095 0.83999683944374215 -0.86120661914780328 0.082547911810839134 0.40737481803242503 -0.21052629249410418 51.802243816835812 0.0086581709145427312 -1.5047944853100799 0.86265841438255242 0.10912698412698414
decision_type=2 2 2 2 2 2 2 2 2 2 2 2 2 2 2 2 2 2 2 2 2 2 2 2 2 2 2 2 2 2
left_child=2 6 -1 21 8 14 22 13 9 -4 25 -12 -13 -7 -6 29 17 18 20 -10 -17 -3 -2 -8 28 -5 -23 -28 -9 -16
right_child=1 3 4 10 5 7 23 24 19 -11 11 12 -14 -15 15 16 -18 -19 -20 -21 -22 26 -24 -25 -26 -27 27 -29 -30 -31
leaf_value=-0.00010500194691941145 0.0035297947837427597 0.00049397043879725975 0.00038670758133788383 0.0010815524904993514 -0.00021206554994896728 4.4191241613589231e-06 0.00095813301831663414 0.0025483164471947735 0.00015116243416881897 0.0015773470129456378 -0.0010166761702857913 0.0085195443461814173 0.00015716167302646985 -0.0051240070982597865 -0.00034747815938483212 -0.0091725334512981743 -0.00057504881183955488 -0.0030162120844329614 -0.011356952657645688 0.00082853362953926718 -0.00058646405210580543 -0.005320711842295333 0.0055396587189215536 0.0035159463893051444 6.1277538625200515e-05 -0.0050404054902028293 -0.007261569052934647 -0.00073681959351673857 0.0002177038848809254 -0.0019123060565778159
leaf_weight=146770 544 250 5933 218 2209 84 295 276 33206 1749 50 79 24 106 1052 24 165 91 47 2552 27 61 388 246 10902 25 29 281 311 450
leaf_count=146770 544 250 5933 218 2209 84 295 276 33206 1749 50 79 24 106 1052 24 165 91 47 2552 27 61 388 246 10902 25 29 281 311 450
internal_value=8.28909e-07 0.00214226 -2.50611e-05 0.000115091 0.000173184 -0.000123052 0.00354187 7.67459e-05 0.000280549 0.000657787 0.00185796 0.00409139 0.00657103 -0.0028567 -0.000697084 -0.00127435 -0.00321783 -0.00552501 -0.00785461 0.000199505 -0.00462697 -0.000996301 0.00436652 0.00212121 0.000125258 0.000451721 -0.00200053 -0.0013472 0.00131353 -0.000816301
internal_weight=208444 2490 205954 1017 59184 15744 1473 11679 43440 7682 396 153 103 190 4065 1856 354 189 98 35758 51 621 932 541 11489 243 371 310 587 1502
internal_count=208444 2490 205954 1017 59184 15744 1473 11679 43440 7682 396 153 103 190 4065 1856 354 189 98 35758 51 621 932 541 11489 243 371 310 587 1502
is_linear=0
shrinkage=0.05


Tree=4
num_leaves=31
num_cat=0
split_feature=9 16 1 11 22 1 3 14 7 8 1 22 4 3 1 11 1 2 5 25 11 11 14 23 8 27 22 7 9 11
split_gain=3.72268 2.12268 1.32772 1.41956 0.906583 0.880314 0.876469 0.785337 1.17686 0.739975 0.665345 0.64066 0.565402 0.422176 0.381156 0.606287 0.359834 0.352688 0.337388 0.414174 0.332261 0.951666 0.448514 0.446584 0.313004 0.478227 0.491996 0.847973 0.461677 0.312016
threshold=0.072319909237868782 0.96566460359563822 -0.1168586616219101 0.27074752097635396 0.39855623861050343 -0.220824372173655 27.069341325774989 0.34647941515967684 0.021107977691385536 0.56097668488586472 0.35826710547264357 -0.27612904722799042 0.38562256174495307 20.714599099936525 -0.24813966177391908 0.06060719640179911 0.085025539166187394 1.3933709607604212 1.4704162095534339 -0.16860869228491118 0.0086581709145427312 0.013011294261294264 0.042919245505452411 -0.71176715069606555 0.25107881448789232 1.1531321259403906 0.12112858959674738 0.027485483388720564 0.038479908561287642 0.63435559006211195
decision_type=2 2 2 2 2 2 2 2 2 2 2 2 2 2 2 2 2 2 2 2 2 2 2 2 2 2 2 2 2 2
left_child=2 12 3 4 14 -5 7 8 -6 16 17 -11 -2 -13 15 -1 20 -4 19 -10 23 -22 -23 -3 -16 26 -26 -28 -29 -7
right_child=1 9 10 5 6 29 -8 -9 18 11 -12 13 -14 -15 24 -17 -18 -19 -20 -21 21 22 -24 -25 25 -27 27 28 -30 -31
leaf_value=0.00027517401408020742 0.0052069058408770064 0.0011995951166829549 -0.00010405884284251312 0.0038350263077663845 -0.0012621885812470945 0.000895180410802852 -0.00033909678990364737 -0.00077274140873399399 -0.010472484789788725 -0.00086361163794956082 0.00051036769344278904 0.00081773431278591943 0.002725154622668292 0.0067889158177728715 0.00025952857770015494 0.0017226012035857789 -0.0037737050311795126 0.00010004993910456887 -0.012178517887558865 -0.00081903139303904035 0.0085512901276267855 0.0046658058488641737 -0.00082680297785235146 -0.0061440447137314589 -0.0008380549231322992 0.00024572829207694153 -0.0014108337929924759 -0.015522559606470169 -0.005236596340546385 0.0029245812641931651
leaf_weight=2099 458 37 156430 300 88 3282 1390 182 25 73 4963 43 460 95 10555 1104 75 24476 49 20 34 42 323 47 538 923 88 20 24 201
leaf_count=2099 458 37 156430 300 88 3282 1390 182 25 73 4963 43 460 95 10555 1104 75 24476 49 20 34 42 323 47 538 923 88 20 24 201
internal_value=7.8746e-07 0.00234003 -1.82992e-05 0.000359664 0.000165818 0.00123614 -0.000911058 -0.0030952 -0.00541765 0.000402215 -6.07748e-05 0.00292448 0.00396333 0.00492833 0.000288862 0.000774069 -0.000551546 -7.64436e-05 -0.00930787 -0.00618206 -5.12106e-05 0.000550502 -0.000194777 -0.00290935 0.00016093 -0.000492372 -0.00150919 -0.00424457 -0.00991203 0.00101229
internal_weight=208444 1687 206757 20888 17105 3783 1754 364 182 769 185869 211 918 138 15351 3203 558 180906 94 45 483 399 365 84 12148 1593 670 132 44 3483
internal_count=208444 1687 206757 20888 17105 3783 1754 364 182 769 185869 211 918 138 15351 3203 558 180906 94 45 483 399 365 84 12148 1593 670 132 44 3483
is_linear=0
shrinkage=0.05


Tree=5
num_leaves=31
num_cat=0
split_feature=6 16 1 21 22 2 1 2 8 2 8 14 14 23 1 7 1 18 25 23 2 6 22 3 12 7 4 2 21 8
split_gain=3.8869 2.43441 1.04416 1.05966 0.718427 0.795995 0.649196 0.647774 0.616569 0.554436 0.498914 0.739375 0.493113 0.467444 0.447646 0.442309 0.39833 0.371208 0.355255 0.374333 0.353036 0.383493 0.344498 0.400637 0.336759 0.331204 0.318374 0.297757 0.294263 0.384444
threshold=0.074574500592989659 0.96566460359563822 -0.1168586616219101 -0.56216189340589251 0.39855623861050343 -0.66878133343691903 0.26915822675417417 -0.55399726503239777 0.56097668488586472 0.12247910694771419 0.23097638373629184 0.35931174089068835 0.06867079280872386 -1.8414263751405533 -0.24813966177391908 0.049582846230057716 -0.23363913473927309 0.73594242015294664 -1.5047944853100799 -0.63694955131324493 1.3933709607604212 0.029497925760310299 0.54275842550995645 29.668648670230692 0.37663067926225829 0.032875859596884452 0.4082634256032025 -0.7698031767202006 1.646203397188676 0.19208764750266896
decision_type=2 2 2 2 2 2 2 2 2 2 2 2 2 2 2 2 2 2 2 2 2 2 2 2 2 2 2 2 2 2
left_child=2 7 3 4 13 10 20 22 12 15 -6 25 -3 -1 17 -8 -5 -15 19 -14 28 -22 23 -2 26 -12 -10 -24 29 -4
right_child=1 8 6 16 5 -7 9 -9 24 -11 11 -13 18 14 -16 -17 -18 -19 -20 -21 21 -23 27 -25 -26 -27 -28 -29 -30 -31
leaf_value=-0.00054745315007375479 0.0064603757670618038 0.0022412788925066708 -0.00010509840295994536 0.0036422757987464947 -0.00064464976299363622 -0.00041138974997752812 0.00090284713468488913 0.0016768005470387025 0.0015614412564956674 0.00010884271153319486 -0.014867477263102219 -0.0025036814615733045 -0.00071292650792860641 0.0018729494014566473 0.00020288507530441402 0.0078679235905165911 0.00096188069966365506 0.00055424633977623004 -0.00070538414204311206 -0.0086793843843042864 2.1299266455595353e-06 0.00053134471563051264 -0.0032007870439944479 0.0037549322478429327 0.00420341230274663 -0.0069247730927807956 -0.0052149433316662913 0.0040368364054571698 0.00032863287831609567 -0.00046051383856903253
leaf_weight=1641 166 136 139936 144 88 1354 2541 427 130 7183 21 85 29 751 10555 23 3701 1844 627 30 20265 4119 30 779 121 35 20 27 3673 8046
leaf_count=1641 166 136 139936 144 88 1354 2541 427 130 7183 21 85 29 751 10555 23 3701 1844 627 30 20265 4119 30 779 121 35 20 27 3673 8046
internal_value=-2.04468e-06 0.00194895 -2.59296e-05 0.000315295 0.000139889 -0.000872488 -6.3065e-05 0.00330754 0.00017272 0.000334145 -0.0035988 -0.00544253 -0.000509146 0.000248239 0.000347534 0.000965326 0.00106226 0.000935883 -0.00105442 -0.00476367 -8.50579e-05 9.15261e-05 0.00400248 0.00423017 0.00224096 -0.00990329 0.000657923 0.000227561 -0.00011345 -0.000124423
internal_weight=208527 2522 206005 20219 16374 1583 185786 1429 1093 9747 229 141 822 14791 13150 2564 3845 2595 686 59 176039 24384 1002 945 271 56 150 57 151655 147982
internal_count=208527 2522 206005 20219 16374 1583 185786 1429 1093 9747 229 141 822 14791 13150 2564 3845 2595 686 59 176039 24384 1002 945 271 56 150 57 151655 147982
is_linear=0
shrinkage=0.05


Tree=6
num_leaves=31
num_cat=0
split_feature=6 29 6 2 5 22 23 4 6 7 7 15 27 6 9 27 8 22 6 27 19 29 7 7 3 9 3 16 27 7
split_gain=3.50793 2.23386 0.985979 0.932179 0.905978 0.873553 0.619803 0.613649 0.608454 0.58526 0.53962 0.680185 0.607366 1.06045 0.431591 0.400026 0.366765 0.318543 0.313997 0.62519 0.490232 0.63376 0.439102 0.361793 0.400764 0.336423 0.29823 0.28275 0.322068 0.379818
threshold=0.074574500592989659 2.5330373517276175 0.02301164044178856 -0.80920865011715659 1.1806189017870352 0.2211486750853677 -0.91900791663451298 0.4646309682614142 0.060817117526253732 0.022271877690774582 0.01835708519246641 0.79387315270935976 -0.26793606917884949 0.044288086953097029 0.082547911810839134 2.5673071947105801 0.12988623459624801 0.54275842550995645 0.049883617907569781 2.2847306137568766 0.99141615089890966 3.3111631259721928 0.033542398885003009 0.027485483388720564 44.849210414354921 0.057555425598421688 20.714599099936525 0.24019383394383398 1.5263969695882935 0.035856926132234263
decision_type=2 2 2 2 2 2 2 2 2 2 2 2 2 2 2 2 2 2 2 2 2 2 2 2 2 2 2 2 2 2
left_child=2 7 -1 4 -4 10 15 14 9 -7 -6 12 13 16 17 -3 -12 -2 -5 20 21 27 -21 -22 -25 -24 -11 -20 29 -29
right_child=1 6 3 18 5 8 -8 -9 -10 26 11 -13 -14 -15 -16 -17 -18 -19 19 22 23 -23 25 24 -26 -27 -28 28 -30 -31
leaf_value=-0.00011058714927950017 0.0033537292509509195 0.0037735329917495623 2.6432547497067807e-05 0.00017341837195654431 0.00018501530448261118 -0.0011726877832425881 -0.0010802024513735979 0.0017538571916431126 0.0020215193057907216 -0.0087682209395784499 -0.00099759260308928776 -0.00036791367126606784 -0.0013868711336384152 0.00057114458245718306 0.0052316554623727009 0.00048881277808894607 -0.0083909725392004482 -0.0010671646204586565 0.0026492060337522144 0.00359303409251832 -0.0021443513815756887 -0.003542800436769493 0.00018455113790336028 0.0086605106698388751 0.0025596443667180013 -0.0012648114470718188 -0.004337925048263953 0.0015929225175568718 0.0016319008999317681 -4.1381459117009197e-05
leaf_weight=127364 551 128 12471 55964 1587 138 556 553 53 49 20 1984 1044 68 354 336 104 44 245 77 20 78 1308 47 63 577 169 513 904 1158
leaf_count=127364 551 128 12471 55964 1587 138 556 553 53 49 20 1984 1044 68 354 336 104 44 245 77 20 78 1308 47 63 577 169 513 904 1158
internal_value=-1.94243e-06 0.00185151 -2.46331e-05 0.000114575 -0.000204998 -0.000758327 4.57458e-05 0.00307779 -0.00297663 -0.00372074 -0.000569584 -0.000941494 -0.00186219 -0.00444675 0.00384927 0.00139494 -0.00719849 0.00302681 0.000207305 0.000587351 0.00103785 0.000903107 -0.00010792 0.00404165 0.00516638 -0.0002591 -0.00533373 0.00102608 0.000871646 0.000460353
internal_weight=208527 2522 206005 78641 17687 5216 1020 1502 409 356 4807 3220 1236 192 949 464 124 595 60954 4990 3028 2898 1962 130 110 1885 218 2820 2575 1671
internal_count=208527 2522 206005 78641 17687 5216 1020 1502 409 356 4807 3220 1236 192 949 464 124 595 60954 4990 3028 2898 1962 130 110 1885 218 2820 2575 1671
is_linear=0
shrinkage=0.05


Tree=7
num_leaves=31
num_cat=0
split_feature=7 27 4 26 7 7 4 7 21 2 28 24 17 2 22 5 4 17 19 27 8 22 0 14 10 17 28 7 14 26
split_gain=2.60715 1.95358 0.780995 0.594713 0.650639 0.544642 0.432707 0.387982 0.380009 0.331457 0.29317 0.285952 0.274957 0.263098 0.283994 0.277475 0.259285 0.252441 0.481604 0.699455 0.449301 0.416072 0.362507 0.443172 0.353107 0.364633 0.398638 0.49814 0.480233 0.352306
threshold=0.053062132784306874 1.4188097644106248 0.72116435154073621 0.30195826470510662 0.044253644120851983 0.074443768581393274 0.089893129676330133 0.057718681851937619 -2.5115264749683388 0.77086806167618227 1.6311688346729636 1.0225261973991082 0.11786477411477413 -1.046180795269291 -0.027283262720481774 1.4421578665642072 0.10219268384135415 0.99134182908545743 0.99118925632665744 2.7492389734086111 0.17430195481980568 0.59058948215875218 -0.20838014697526322 0.30568268497330292 0.98237851265331477 0.9466656131479142 0.42478279071240577 0.034269889769321632 0.32750991760756792 3.0331499389212855
decision_type=2 2 2 2 2 2 2 2 2 2 2 2 2 2 2 2 2 2 2 2 2 2 2 2 2 2 2 2 2 2
left_child=3 2 6 4 -1 7 -2 8 -3 11 -8 -9 -6 14 -5 -16 -14 18 -15 21 -21 24 -19 -24 25 29 28 -28 -27 -20
right_child=1 5 -4 13 12 -7 10 9 -10 -11 -12 -13 16 17 15 -17 -18 22 19 20 -22 -23 23 -25 -26 26 27 -29 -30 -31
leaf_value=-7.8849842464742272e-05 0.0057055969469547571 0.0042963318433351955 0.00062729039020957924 -7.8931944757937891e-05 0.0036778944125037852 0.0018509804611117524 0.0027529728748614648 -0.0010756769406827236 0.00027705865887694617 0.0012564085427531635 0.0072846290446987776 -0.0044609667362445699 0.0037298297356017801 0.00016471353831245988 -0.00077466997963397417 -0.004273128578051304 0.00027778434167626941 0.0026684460253184016 0.0023324015477555805 0.0025860418091206072 -0.0010531937509716742 -0.0011007182205186995 -0.0022347330703939264 -0.00015151651426834457 0.0079763387645860866 0.011408129525531469 0.0037715837230427735 0.00027201090937579108 0.0025245721873034203 -0.0020070504466660651
leaf_weight=153729 160 67 359 7792 137 401 1008 573 481 138 37 70 69 40191 232 75 257 86 104 107 409 92 342 1007 28 29 265 165 32 85
leaf_count=153729 160 67 359 7792 137 401 1008 573 481 138 37 70 69 40191 232 75 257 86 104 107 409 92 342 1007 28 29 265 165 32 85
internal_value=-1.84531e-06 0.00139367 0.00267431 -2.42433e-05 -7.32132e-05 0.000235905 0.00328417 -0.000251412 0.000768466 -0.000967025 0.00291342 -0.00144422 0.00179832 0.000123692 -0.000137702 -0.00162934 0.00100843 0.000172991 0.000195533 0.00113675 -0.000298546 0.00206252 -0.000479003 -0.000679656 0.00247356 0.00224698 0.00296532 0.00242872 0.0067479 0.000380796
internal_weight=208527 3294 1564 205233 154192 1730 1205 1329 548 781 1045 643 463 51041 8099 307 326 42942 41507 1316 516 800 1435 1349 708 680 491 430 61 189
internal_count=208527 3294 1564 205233 154192 1730 1205 1329 548 781 1045 643 463 51041 8099 307 326 42942 41507 1316 516 800 1435 1349 708 680 491 430 61 189
is_linear=0
shrinkage=0.05


Tree=8
num_leaves=31
num_cat=0
split_feature=6 29 6 5 8 8 4 18 10 22 9 19 22 26 16 9 14 9 23 18 10 0 23 4 4 5 29 25 28 5
split_gain=2.88461 1.85619 0.850224 0.676858 0.633713 0.586805 0.527688 0.502637 0.473497 0.516374 0.566588 0.424387 0.490869 0.421859 0.398467 0.612713 0.394664 0.353801 0.337247 0.442909 0.299505 0.289442 0.272891 0.265125 0.261934 0.292087 0.290783 0.253379 0.244249 0.233948
threshold=0.074574500592989659 2.5330373517276175 0.0251698356039315 1.4031722384600824 0.23541125831964457 0.47499783392908507 0.65778247005989121 0.92888748419721889 0.38529014844804327 0.23919186026745745 0.046309168071776118 0.99134182908545743 -0.18219625136066311 -0.87363778612536136 0.24019383394383398 0.054344624818186138 0.06867079280872386 0.082547911810839134 -0.77795752235531812 0.99118925632665744 0.16155372405372409 -0.20838014697526322 -2.1260315999249975 0.49752753050172444 0.23227607765734185 0.7799618402641515 1.3712617100257312 -1.6081186489850194 4.1891202554645419 1.1054331337008156
decision_type=2 2 2 2 2 2 2 2 2 2 2 2 2 2 2 2 2 2 2 2 2 2 2 2 2 2 2 2 2 2
left_child=2 6 -1 14 13 16 17 8 9 20 -11 18 23 -5 15 29 -3 -2 19 -7 -6 -10 -16 28 -19 26 -26 -18 -13 -4
right_child=1 5 3 4 7 11 -8 -9 21 10 -12 12 -14 -15 22 -17 27 24 -20 -21 -22 -23 -24 -25 25 -27 -28 -29 -30 -31
leaf_value=-9.0434362797569149e-05 0.0026016299623301134 0.0018704965497393197 0.00092448698308699264 -0.0045933688470326806 -0.0010128129566683078 0.0054599076307689154 0.00085597126271237927 -0.00048279971879170152 0.0027702376787783582 -0.0082467720572672355 -4.6006137771265851e-05 0.0062245858437381691 0.0044533353687793119 -2.73692782247807e-05 -0.00057220298811517503 0.0035389074834813253 -0.0054494401998503288 0.0059517863068278094 -0.0049903309224425142 -0.0027660623736058673 -0.0046030164785195163 -0.0014207544902434229 0.00018595539567396556 -0.005028068487299607 0.0040969089839200026 0.0022063217017844671 0.010372010467108339 -0.0011590218680428335 8.3343217094593189e-05 -0.00079867657653669665
leaf_weight=142118 772 107 1022 51 179 30 284 1103 50 85 28 20 156 6241 1214 205 37 165 37 36 86 234 53145 20 80 177 24 492 85 244
leaf_count=142118 772 107 1022 51 179 30 284 1103 50 85 28 20 156 6241 1214 205 37 165 37 36 86 234 53145 20 80 177 24 492 85 244
internal_value=-1.75305e-06 0.00167898 -2.23293e-05 0.000129172 -0.000299238 3.29281e-05 0.0027968 -0.00113648 -0.00222562 -0.0033847 -0.00621472 0.00157633 0.00258269 -6.43791e-05 0.000190997 0.00100301 -0.000898939 0.00324935 -0.00116916 0.000973015 -0.00217794 -0.000682904 0.000169023 0.000248116 0.0043705 0.00344199 0.00554501 -0.00145911 0.0012531 0.000592376
internal_weight=208527 2522 206005 63887 8057 1020 1502 1765 662 378 113 384 281 6292 55830 1471 636 1218 103 66 265 284 54359 125 446 281 104 529 105 1266
internal_count=208527 2522 206005 63887 8057 1020 1502 1765 662 378 113 384 281 6292 55830 1471 636 1218 103 66 265 284 54359 125 446 281 104 529 105 1266
is_linear=0
shrinkage=0.05


Tree=9
num_leaves=31
num_cat=0
split_feature=6 29 1 21 22 3 14 7 8 21 4 23 19 22 1 11 22 14 1 1 22 23 18 1 21 7 22 2 8 18
split_gain=2.60336 1.67521 0.85884 0.920648 0.626972 0.605472 0.594142 0.644998 0.529591 0.526808 0.486258 0.386653 0.383009 0.443009 0.374992 0.392316 0.372173 0.356184 0.343321 0.329228 0.305788 0.304366 0.399725 0.291694 0.626116 0.624623 0.359779 0.283485 0.357649 0.568544
threshold=0.074574500592989659 2.5330373517276175 -0.1168586616219101 -0.56216189340589251 0.43879162031037761 26.075466871199598 0.34647941515967684 0.021258277914729406 0.47499783392908507 1.7080873035538138 0.4646309682614142 -1.8414263751405533 0.99134182908545743 -0.18219625136066311 -0.24813966177391908 0.06060719640179911 -0.41112854060619275 0.06867079280872386 0.043214311223633402 -0.21052629249410418 0.54275842550995645 -0.77795752235531812 0.99118925632665744 -0.432366369589264 -1.905908330054551 0.057718681851937619 0.6875061686898275 1.3933709607604212 0.1894391614866219 0.61305202661826985
decision_type=2 2 2 2 2 2 2 2 2 2 2 2 2 2 2 2 2 2 2 2 2 2 2 2 2 2 2 2 2 2
left_child=2 10 3 4 11 6 7 -6 17 27 20 -1 21 -14 15 16 -13 -3 -15 -5 -2 22 -10 25 -25 -19 -26 28 -4 -30
right_child=1 8 9 19 5 -7 -8 -9 12 -11 -12 14 13 18 -16 -17 -18 23 -20 -21 -22 -23 -24 24 26 -27 -28 -29 29 -31
leaf_value=-0.00050665118896966034 0.0035747999484141316 0.0017769717391053754 -7.9063138791420765e-05 0.0023939950348811543 -0.0017764039399295701 -0.00042022406049992909 -0.00054877986806352536 -0.0089709994227053936 0.0051869122350278003 0.00031975548119175703 0.0014784384491521013 0.0013717010697679749 0.00023571033175103369 0.0053515375386254393 0.00017416549426178238 0.0016323723453485297 -0.0001816929262490328 0.0044743730601759912 -0.00067796405517207142 0.00083263312656275956 -0.00014219521189708326 -0.0047408143522507341 -0.002627759250915713 -0.0053302200586577472 -0.00017585044844295065 -0.0024650368048848275 -0.0053935862152445085 8.4685158353383093e-05 -0.0020375304984806561 -0.00030334920471347942
leaf_weight=1644 890 107 142751 374 59 1101 111 66 30 8932 553 600 125 127 10734 980 1079 59 29 3471 59 37 36 107 253 72 38 24330 498 9275
leaf_count=1644 890 107 142751 374 59 1101 111 66 30 8932 553 600 125 127 10734 980 1079 59 29 3471 59 37 36 107 253 72 38 24330 498 9275
internal_value=-1.66539e-06 0.00159503 -2.12128e-05 0.000288254 0.000124758 -0.000912846 -0.00321105 -0.00557515 3.12817e-05 -5.48919e-05 0.00265696 0.000217015 0.00149752 0.00245355 0.000305846 0.00083742 0.000373421 -0.000853992 0.00423067 0.000984506 0.00334371 -0.0011107 0.000924364 -0.00138615 -0.00205975 0.000660346 -0.000857204 -7.38135e-05 -9.90965e-05 -0.000391717
internal_weight=208527 2522 206005 20219 16374 1337 236 125 1020 185786 1502 15037 384 281 13393 2659 1679 636 156 3845 949 103 66 529 398 131 291 176854 152524 9773
internal_count=208527 2522 206005 20219 16374 1337 236 125 1020 185786 1502 15037 384 281 13393 2659 1679 636 156 3845 949 103 66 529 398 131 291 176854 152524 9773
is_linear=0
shrinkage=0.05


Tree=10
num_leaves=31
num_cat=0
split_feature=6 29 6 0 4 3 22 1 21 8 6 12 22 13 14 17 3 8 18 28 19 18 21 24 1 21 7 16 7 25
split_gain=2.24622 1.49208 0.797623 0.541664 0.518883 0.451778 0.652236 0.62644 0.603072 0.602746 1.15098 0.369734 0.333461 0.329091 0.318557 0.375988 0.291004 0.273006 0.512119 0.513183 0.321859 0.3471 0.471603 0.278379 0.272244 0.247675 0.234771 0.228716 0.305639 0.231454
threshold=0.074574500592989659 2.8688907836286073 0.0251698356039315 -0.29887274450162737 0.47408483339238411 27.987393428514434 0.33207802757015098 -0.15033950053851106 -0.82870573232288958 0.24026011498566333 0.047371103078891696 0.49786324786324793 0.54275842550995645 0.021749084249084252 0.39911504424778771 0.65197981366459634 65.443983882851001 0.25107881448789232 0.89699381078691431 1.2612174386869535 0.89333122629582817 0.79387315270935976 -0.26034729985975186 -1.6366848091811048 -0.28785682327498618 0.8045203471550173 0.032875859596884452 0.97825091575091583 0.057718681851937619 0.87696186206022264
decision_type=2 2 2 2 2 2 2 2 2 2 2 2 2 2 2 2 2 2 2 2 2 2 2 2 2 2 2 2 2 2
left_child=2 4 -1 11 12 6 17 8 -7 -8 -11 -3 -2 -5 15 -12 27 -4 19 20 21 22 -19 -20 -10 -6 -24 -15 29 -29
right_child=1 3 5 13 25 7 9 -9 24 10 14 -13 -14 16 -16 -17 -18 18 23 -21 -22 -23 26 -25 -26 -27 -28 28 -30 -31
leaf_value=-8.3735626032027579e-05 0.0033356749671650762 0.00083818092893671965 0.00013982602920935215 0.0055613225899287504 0.00074511640153628858 0.00030120570606635266 -0.00038024570585015391 0.00010427274883314832 0.0052114794709874936 -0.0078259730877557609 0.0023181803210172804 0.0054574274945356971 -0.0003926729756585701 -0.005012518857885782 0.0010097495658555999 -0.0057706518777908347 0.0032517259182312931 -0.0091836635709804451 -0.0016801477482187707 -0.0098628976249269078 -0.006209779724028793 -0.00025139920554949211 -0.0041525900283635687 3.3864204122695261e-05 0.0011517153788217246 0.0036794725739780591 0.0026970333509697495 -0.0001477043747174588 -0.001869645265833242 0.0046813522162015685
leaf_weight=142022 953 163 3974 20 467 6247 307 48528 42 101 20 59 64 37 88 51 39 29 278 21 37 222 29 1602 2460 85 22 218 372 28
leaf_count=142022 953 163 3974 20 467 6247 307 48528 42 101 20 59 64 37 88 51 39 29 278 21 37 222 29 1602 2460 85 22 218 372 28
internal_value=4.17685e-07 0.00148864 -1.76724e-05 -9.12793e-05 0.00243116 0.000128795 -0.000257117 0.000174483 0.00056392 -0.00188049 -0.00365194 0.00206582 0.00310105 -0.000761974 -0.00100051 -0.00349211 -0.000944201 -0.000108991 -0.00055042 -0.00227808 -0.00180823 -0.00126896 -0.00409271 -0.000219591 0.00121986 0.00119696 -0.00119785 -0.00119404 -0.00096542 0.000401944
internal_weight=208585 2505 206080 936 1569 64058 6781 57277 8749 567 260 222 1017 714 159 71 694 6214 2240 360 339 302 80 1880 2502 552 51 655 618 246
internal_count=208585 2505 206080 936 1569 64058 6781 57277 8749 567 260 222 1017 714 159 71 694 6214 2240 360 339 302 80 1880 2502 552 51 655 618 246
is_linear=0
shrinkage=0.05


Tree=11
num_leaves=31
num_cat=0
split_feature=6 27 6 0 22 20 1 18 22 3 1 21 0 3 13 13 21 15 4 26 19 6 1 17 0 1 6 4 20 8
split_gain=2.02722 1.3685 0.727475 0.350738 0.482756 0.468895 0.342565 0.773617 0.503308 0.513724 0.441736 0.432804 0.33521 0.36848 0.32572 0.290754 0.270905 0.258685 0.257637 0.234844 0.260761 0.542676 0.287107 0.26898 0.379381 0.339836 0.287573 0.232002 0.230942 0.244303
threshold=0.074574500592989659 2.4214421414930949 0.02301164044178856 -0.29887274450162737 0.52200326371236605 -1.0663809381551628 -0.1168586616219101 0.65197981366459634 0.45628588043241708 30.771644117428405 -0.24813966177391908 1.5369925126644157 -0.29887274450162737 15.968459505368687 0.77092066449309116 0.021749084249084252 -0.52268105551594968 0.6839856050382368 0.74390368847065325 3.6197445599359432 0.98698870573870578 0.034241304683135187 0.22255771189789333 0.96536731634182915 -0.096916052056587307 -0.036575460301956901 0.046259402339803947 0.17141229121551074 -1.9349005465872149 0.25107881448789232
decision_type=2 2 2 2 2 2 2 2 2 2 2 2 2 2 2 2 2 2 2 2 2 2 2 2 2 2 2 2 2 2
left_child=2 3 -1 4 -2 27 7 10 14 28 -4 19 13 -3 16 -14 -9 -17 -7 20 -8 -22 23 24 -23 -26 -27 -5 -10 -30
right_child=1 12 6 5 -6 18 11 8 9 -11 -12 -13 15 -15 -16 17 -18 -19 -20 -21 21 22 -24 -25 25 26 -28 -29 29 -31
leaf_value=-9.0687566625037127e-05 0.0040354828036951781 -0.0033321305942081384 0.0019424547818135908 0.0020866375096375124 -0.0015460858367881631 0.0026369450266972728 -2.8154755908174374e-06 -2.0291755567344709e-05 0.0018146405129560402 -0.00033105744948134131 0.00059145594761830528 0.00038936079798584597 0.0052010117121972146 0.0025164902778659088 0.0012921247190113942 -0.0015639435017172282 0.0009681060012465706 0.00064018596955414057 0.00054934713633984853 -0.00098613431151464703 -0.0042699573783292659 -0.0008018497321438888 0.0046922714588468646 0.00010365571736443562 0.0098342824106415119 -1.2851192303443035e-06 0.0064319090524804778 -0.0015683448931236785 -0.0018132364970178492 -0.0052463885701032713
leaf_weight=127304 391 32 676 64 43 826 52642 8477 21 503 5765 8072 20 170 570 456 755 188 180 601 42 47 67 235 24 38 32 135 95 114
leaf_count=127304 391 32 676 64 43 826 52642 8477 21 503 5765 8072 20 170 570 456 755 188 180 601 42 47 67 235 24 38 32 135 95 114
internal_value=3.96792e-07 0.00141421 -1.67888e-05 0.0022637 0.00348247 0.00182474 0.000102633 0.000301573 3.76514e-05 -0.00122614 0.000733247 4.79863e-05 -0.000193543 0.00158998 0.000132159 -0.000736119 6.05402e-05 -0.000920502 0.00226342 -3.30122e-06 7.8171e-06 0.00116188 0.00167686 0.00113954 0.00286601 0.00469995 0.0029396 -0.000392873 -0.00318364 -0.00368586
internal_weight=208585 2505 206080 1639 434 1205 78776 16976 10535 733 6441 61800 866 202 9802 664 9232 644 1006 53728 53127 485 443 376 141 94 70 199 230 209
internal_count=208585 2505 206080 1639 434 1205 78776 16976 10535 733 6441 61800 866 202 9802 664 9232 644 1006 53728 53127 485 443 376 141 94 70 199 230 209
is_linear=0
shrinkage=0.05


Tree=12
num_leaves=31
num_cat=0
split_feature=6 16 6 5 2 22 9 7 1 3 16 9 16 4 7 7 8 19 12 28 7 27 20 16 1 7 15 9 27 6
split_gain=1.83537 0.90576 0.721636 0.605966 0.801059 0.83276 0.57411 0.517604 0.464355 0.437595 0.392125 0.41141 0.366982 0.362843 0.347142 0.296423 0.401314 0.459693 0.71608 0.394345 0.281861 0.254564 0.254048 0.239562 0.272067 0.223434 0.413456 0.393569 0.880762 0.351891
threshold=0.082542043312353056 0.97424845269672866 0.025991522461986667 1.128460354982405 -0.71897764587773361 0.2211486750853677 0.05171360885477666 0.021755438106589781 0.075410377859369895 19.724240351687694 0.23581235697940506 0.05171360885477666 0.97825091575091583 0.47408483339238411 0.036921296382397766 0.057718681851937619 0.47499783392908507 0.99141615089890966 0.50438630242400928 3.2524054779672595 0.06443175788333981 1.0742267035129631 0.6745592905640444 0.96566460359563822 -0.28785682327498618 0.019819553397143277 0.80086206896551737 0.04274316755649437 -0.26793606917884949 0.041915867941059975
decision_type=2 2 2 2 2 2 2 2 2 2 2 2 2 2 2 2 2 2 2 2 2 2 2 2 2 2 2 2 2 2
left_child=2 13 -1 10 5 25 7 -7 12 14 11 -4 -3 -2 -9 -14 19 -18 -19 -17 -10 -8 -15 24 -6 -5 27 28 29 -27
right_child=1 8 3 4 23 6 21 9 20 -11 -12 -13 15 22 -16 16 17 18 -20 -21 -22 -23 -24 -25 -26 26 -28 -29 -30 -31
leaf_value=-7.2658631174994114e-05 0.0032111138267478245 -0.0049210248232286966 0.00062941069327936356 0.00010348025112598976 0.0015842553872730328 -0.00064208466707406419 0.0023876653378514727 -0.010937382779084147 -0.0072745535460611195 -0.0034279166012033072 0.00020657817490652626 0.0030290402115679934 0.00311678923784801 0.00044060907899521663 -0.0034266846105456359 -0.00025923827972866619 -0.0012168653602487442 0.0010092618995258817 0.0085964426469138776 -0.0060151785826058806 -0.0010450366865489226 -0.0037383324075066907 0.0035650207477604342 -0.00050949544932323953 0.00014979482070549792 -0.0074138597271331923 -0.00018815714561916434 0.00033923402240832958 -0.0012714334887277802 -0.00089718317467486492
leaf_weight=146923 697 28 707 1377 343 130 74 40 30 242 43116 239 122 258 25 152 83 96 46 37 46 22 87 1353 9108 89 1902 274 912 27
leaf_count=146923 697 28 707 1377 343 130 74 40 30 242 43116 239 122 258 25 152 83 96 46 37 46 22 87 1353 9108 89 1902 274 912 27
internal_value=3.76953e-07 0.00164536 -1.29958e-05 0.00013315 -0.00013126 -0.000646809 -0.00251735 -0.00328647 0.000164861 -0.00440625 0.000228672 0.00123566 0.000659254 0.00255468 -0.00804865 0.000950761 0.000312463 0.00173923 0.00346708 -0.00138606 -0.00350406 0.000983791 0.0012285 0.000112772 0.000201855 -0.000429172 -0.000658093 -0.00134459 -0.00179339 -0.00589705
internal_weight=208585 1682 206903 59980 15918 5114 533 437 640 307 44062 946 564 1042 65 536 414 225 142 189 76 96 345 10804 9451 4581 3204 1302 1028 116
internal_count=208585 1682 206903 59980 15918 5114 533 437 640 307 44062 946 564 1042 65 536 414 225 142 189 76 96 345 10804 9451 4581 3204 1302 1028 116
is_linear=0
shrinkage=0.05


Tree=13
num_leaves=31
num_cat=0
split_feature=6 29 6 2 22 5 16 9 7 7 2 5 7 17 6 22 26 29 7 6 17 9 7 20 19 21 5 28 28 21
split_gain=1.67589 1.47831 0.564348 0.58625 0.647177 0.474478 0.373011 0.372817 0.333569 0.53963 0.327735 0.318505 0.500056 0.661734 0.767678 0.31066 0.307392 0.298822 0.31848 0.299906 0.437969 0.266206 0.530978 0.46244 0.448419 0.386409 0.445795 0.347305 0.33197 0.515984
threshold=0.068658762245090293 2.6908337390674713 0.02301164044178856 -0.80920865011715659 0.2211486750853677 1.0804814410627313 0.98268365817091463 0.082547911810839134 0.021755438106589781 0.035856926132234263 -0.91410447439487175 1.0496012834036113 0.018250036087766087 0.21834477498093061 0.04060404385007902 -0.98562560571157698 0.087516300646716769 -0.099947057032423195 0.02283086412580328 0.047371103078891696 0.3815698345517507 0.046309168071776118 0.036921296382397766 -1.6750564769421881 0.99141615089890966 -2.5115264749683388 2.1026975377892074 1.3490813887700108 2.1416224947870548 4.2710482310280211
decision_type=2 2 2 2 2 2 2 2 2 2 2 2 2 2 2 2 2 2 2 2 2 2 2 2 2 2 2 2 2 2
left_child=2 7 -1 4 11 -6 15 16 -7 -10 -9 -4 -13 14 -14 -3 -2 18 -15 20 -20 -5 24 -24 25 -23 27 -27 29 -25
right_child=1 6 3 21 5 8 -8 10 9 -11 -12 12 13 17 -16 -17 -18 -19 19 -21 -22 22 23 28 -26 26 -28 -29 -30 -31
leaf_value=-8.2520247916138562e-05 0.0022755739738772925 0.0024346988121978939 7.0859742873119661e-05 0.00013449194017302877 -6.782544218087202e-06 -0.00073675227356147103 0.0001120661107079608 0.004852606043581606 -0.0056345585152881451 -0.0013585582001126438 0.0021935988532123451 0.00024689678301454402 -0.0084566980086523916 -0.00067950778448812527 9.156730145605253e-05 -0.0037150598212357857 0.00083487038827388205 -0.00038253038082541722 -0.0082704181878421549 0.00091623704453619816 -0.002523304421635876 -0.0014602670817264727 -0.0018197232840825189 0.00064356156770657084 0.0033638828492810352 0.00078486277245078725 -0.0056878060144795618 0.0028872418852007582 -0.0005809113592912152 0.0081833883836541482
leaf_weight=127304 769 25 10230 56587 279 153 1186 182 156 140 319 2157 58 511 48 115 714 3448 39 48 221 143 266 1689 237 562 22 302 652 23
leaf_count=127304 769 25 10230 56587 279 153 1186 182 156 140 319 2157 58 511 48 115 714 3448 39 48 221 143 266 1689 237 562 22 302 652 23
internal_value=3.58109e-07 0.00111646 -1.76388e-05 8.82939e-05 -0.000166678 -0.00162611 -0.000176059 0.00198032 -0.00263232 -0.00361213 0.00315955 -0.000103285 -0.000376102 -0.000683399 -0.00458579 -0.00261689 0.00158194 -0.000586457 -0.00144499 -0.00271499 -0.00338537 0.000162016 0.000561787 0.000156803 0.0014031 0.000951497 0.00134075 0.00151972 0.000379204 0.000744856
internal_weight=208585 3310 205275 77971 17488 728 1326 1984 449 296 501 16760 6530 4373 106 140 1483 4267 819 308 260 60483 3896 2630 1266 1029 886 864 2364 1712
internal_count=208585 3310 205275 77971 17488 728 1326 1984 449 296 501 16760 6530 4373 106 140 1483 4267 819 308 260 60483 3896 2630 1266 1029 886 864 2364 1712
is_linear=0
shrinkage=0.05


Tree=14
num_leaves=31
num_cat=0
split_feature=6 27 1 21 21 3 22 28 27 4 29 0 22 20 0 3 13 5 10 9 4 4 29 1 22 1 21 23 1 1
split_gain=1.51258 1.05767 0.604556 0.680753 0.434344 0.33228 0.375402 0.440182 0.317726 0.30736 0.34835 0.28498 0.417616 0.386485 0.277408 0.324412 0.257839 0.23001 0.253392 0.221869 0.21779 0.217407 0.205852 0.228987 0.205101 0.203972 0.579548 0.277129 0.248659 0.211736
threshold=0.074574500592989659 2.4214421414930949 -0.08714136944584526 -0.27629868111095374 1.646203397188676 60.228089015243746 0.42227583819896175 0.39450645549732188 1.5878940121707255 0.12990566888700281 0.90275187087233644 -0.29887274450162737 0.52200326371236605 -1.0663809381551628 -0.29887274450162737 15.968459505368687 0.021749084249084252 0.82923047015585938 0.98698870573870578 0.046309168071776118 0.17141229121551074 0.77808579137079814 4.8395337756512502 0.21160963926084578 0.057645639061587199 -0.17076733577462364 -0.8835638366289108 -1.8973305193398964 -0.28785682327498618 -0.23363913473927309
decision_type=2 2 2 2 2 2 2 2 2 2 2 2 2 2 2 2 2 2 2 2 2 2 2 2 2 2 2 2 2 2
left_child=2 11 3 5 -4 6 25 8 -8 10 19 12 -2 20 15 -3 -16 18 -18 -9 -13 -15 23 -19 -22 26 27 -1 -28 -29
right_child=1 14 4 -5 -6 -7 7 9 -10 -11 -12 13 -14 21 16 -17 17 22 -20 -21 24 -23 -24 -25 -26 -27 28 29 -30 -31
leaf_value=-0.00073344016983017935 0.0035813358295565981 -0.0031877658053417694 -6.8879759728822471e-05 0.00082766427197488953 0.00027587589331518514 0.00058409349466993755 -0.00030006962189149655 -0.0056949865309721456 0.0034805657826805616 -0.00092930103800328552 -0.00032517971739602777 0.0019617536519945136 -0.0016100221120300272 0.0022689650354011433 0.0049055617906560659 0.0022999893799287214 -0.0023191745279616174 0.0014700504234299097 0.0023131852528560119 -0.00049378975597210231 -0.00058256363557111996 0.00015788483839239401 -0.0018084953523094895 -0.0034326568944379691 -0.0053892900942758264 -1.5066822603040812e-05 0.0053309800893960833 0.00055568871786071991 0.0011207060373065964 -7.9281627377655105e-05
leaf_weight=859 391 32 166289 3700 9667 3166 1328 114 58 370 65 64 43 864 20 170 280 202 33 25 107 142 102 27 28 13795 36 2602 1356 2650
leaf_count=859 391 32 166289 3700 9667 3166 1328 114 58 370 65 64 43 864 20 170 280 202 33 25 107 142 102 27 28 13795 36 2602 1356 2650
internal_value=3.40211e-07 0.00122158 -1.45046e-05 0.00019247 -4.99389e-05 0.000103527 3.81097e-05 -0.000624067 -0.000141861 -0.00178842 -0.00334662 0.00196839 0.00306698 0.00157272 -0.000191837 0.00143064 -0.000685423 -0.000859056 -0.00183078 -0.00475952 -0.000440614 0.00197098 5.98245e-05 0.000892002 -0.00157951 9.90481e-05 0.00030886 9.91295e-05 0.00122959 0.000235302
internal_weight=208585 2505 206080 30124 175956 26424 23258 1960 1386 574 204 1639 434 1205 866 202 664 644 313 139 199 1006 331 229 135 21298 7503 6111 1392 5252
internal_count=208585 2505 206080 30124 175956 26424 23258 1960 1386 574 204 1639 434 1205 866 202 664 644 313 139 199 1006 331 229 135 21298 7503 6111 1392 5252
is_linear=0
shrinkage=0.05


Tree=15
num_leaves=31
num_cat=0
split_feature=6 16 9 1 21 21 2 1 12 3 10 2 21 16 7 7 2 14 5 21 12 28 18 19 12 21 6 26 7 1
split_gain=1.43236 1.20055 0.580452 0.377278 0.586606 0.384103 0.311504 0.321362 0.689871 0.383448 0.294053 0.288106 0.27453 0.261759 0.254702 0.316417 0.309095 0.319654 0.297806 0.252922 0.250162 0.362655 0.466829 0.428845 0.559545 0.587241 0.476947 0.429036 0.526811 0.436703
threshold=0.049883617907569781 0.92207646176911562 0.082547911810839134 -0.089296553612238247 -0.27629868111095374 2.8474955337519767 -0.71897764587773361 -0.18455482210356991 0.57456714120815711 27.069341325774989 0.082913614163614188 1.7112089254611111 0.42319225032383817 0.33188405797101456 0.074443768581393274 0.057718681851937619 0.24239827732993938 0.88840996168582387 1.2871414693818561 -0.72074765984036737 0.91110935524652348 0.43996535214061022 0.92888748419721889 0.99572649572649585 0.19650488400488403 -0.083603813948976979 0.060817117526253732 2.376643889294431 0.049582846230057716 -0.432366369589264
decision_type=2 2 2 2 2 2 2 2 2 2 2 2 2 2 2 2 2 2 2 2 2 2 2 2 2 2 2 2 2 2
left_child=3 2 13 4 6 11 7 8 -1 -10 -7 -5 -13 -2 15 20 18 -18 -17 -9 21 -3 23 27 25 -25 -26 -23 29 -29
right_child=1 14 -4 5 -6 10 -8 19 9 -11 -12 12 -14 -15 -16 16 17 -19 -20 -21 -22 22 -24 24 26 -27 -28 28 -30 -31
leaf_value=-0.00069571965756731139 0.002041126818145425 0.0017962028497427792 0.0032675256254353574 -9.063070764829553e-05 0.00081935109414082324 0.0063899509820409808 0.00015205762643448359 0.00012378167032170708 -0.0071937210495124811 0.0006691065443737899 0.00057607250573024724 3.7869637633800272e-05 0.00057900153998995986 0.00089081574061904405 0.0014225091121033984 -0.002151869772144167 0.0014274879354046596 -0.0031824768479134001 0.0008417059281922636 -0.00078367382552899665 -0.0011051131982208063 -0.00010660424350483462 0.00058393163090302003 0.012743030082700509 0.002723915718855675 0.0010536499867818995 -0.0039966090270106428 -0.0092586133033037196 0.0013635852361743334 -0.0024221625752212849
leaf_weight=574 631 391 360 152519 2872 22 18235 2675 69 20 1904 16643 2728 2287 384 413 206 46 104 1077 320 705 2651 21 66 22 44 25 91 356
leaf_count=574 631 391 360 152519 2872 22 18235 2675 69 20 1904 16643 2728 2287 384 413 206 46 104 1077 320 705 2651 21 66 22 44 25 91 356
internal_value=-5.29659e-06 0.00060735 0.00137326 -3.33353e-05 0.000146177 -5.96936e-05 6.08186e-05 -0.00031602 -0.00133081 -0.00542679 0.000642482 -6.75614e-05 0.000114077 0.00113956 0.000177809 9.02861e-05 -0.000849826 0.000585986 -0.00154968 -0.000136701 0.000244367 0.000343139 0.000200424 -0.000563995 0.00192622 0.00676242 3.57058e-05 -0.000887702 -0.00205438 -0.00287075
internal_weight=208461 9123 3278 199338 25522 173816 22650 4415 663 89 1926 171890 19371 2918 5845 5461 769 252 517 3752 4692 4372 3981 1330 153 43 110 1177 472 381
internal_count=208461 9123 3278 199338 25522 173816 22650 4415 663 89 1926 171890 19371 2918 5845 5461 769 252 517 3752 4692 4372 3981 1330 153 43 110 1177 472 381
is_linear=0
shrinkage=0.05


Tree=16
num_leaves=31
num_cat=0
split_feature=6 16 4 6 1 8 5 13 11 26 4 1 0 28 29 19 28 12 25 27 1 19 26 28 26 8 1 11 1 28
split_gain=1.2927 1.0835 0.5757 0.424334 0.342813 0.573474 0.55189 0.758894 0.421875 0.290933 0.282585 0.271118 0.593397 0.414478 0.327284 0.271048 0.316075 0.268492 0.264194 0.266906 0.371321 0.313958 0.39346 0.32787 0.275576 0.465904 0.38285 0.749547 0.28958 0.467337
threshold=0.049883617907569781 0.92207646176911562 0.72785048049690715 0.064302444960913377 -0.095842864532149283 0.25107881448789232 1.3213929372234492 0.13534035409035414 0.31877479401891978 1.275717786253755 -0.074665960286240271 0.26915822675417417 0.041170370882979264 0.64824296498029643 4.1298719031797839 0.73594242015294664 0.13397530190735266 0.4026472431077695 -1.6081186489850194 2.2847306137568766 -0.432366369589264 0.99141615089890966 3.287613853401917 0.50380225747258711 4.0593643477891375 0.19208764750266896 0.052490011433989466 0.15281593406593411 0.5319050623437811 3.2524054779672595
decision_type=2 2 2 2 2 2 2 2 2 2 2 2 2 2 2 2 2 2 2 2 2 2 2 2 2 2 2 2 2 2
left_child=4 2 3 9 5 8 -7 17 -1 -2 -5 14 13 -13 -6 16 -9 -8 -3 20 -20 -22 -23 -24 28 26 27 -26 -21 -30
right_child=1 18 -4 10 11 6 7 15 -10 -11 -12 12 -14 -15 -16 -17 -18 -19 19 24 21 22 23 -25 25 -27 -28 -29 29 -31
leaf_value=0.00013417106587876643 0.00056394915156573935 -0.0015228719324810087 6.0071207231754998e-05 0.0060138320239881676 -6.79461816921321e-05 -0.00023470799225513419 0.00033171538749835844 -0.0025936232301695594 0.00076885258255348287 0.0025809175556771062 0.0021097726995147246 0.0006230187631340601 -7.9856216476196966e-06 0.0024568459427935429 -0.0029010654744399968 -0.0026647868069737931 -0.0089686442782186872 -0.0033243764392810755 0.0024985567142873483 -0.00061895625728614165 0.00025106010536249569 0.005431395182484481 0.0058567838014467908 -0.00088087937013672985 0.0019901892501446939 0.00017656309849680047 0.00040369707508943983 0.01278815829427913 0.0048056514037755106 -0.0013406401289719693
leaf_weight=18067 936 222 724 48 167269 1602 192 29 3062 221 1349 1629 6811 380 102 68 59 68 239 1755 2050 68 23 84 45 1150 60 25 65 59
leaf_count=18067 936 222 724 48 167269 1602 192 29 3062 221 1349 1629 6811 380 102 68 59 68 239 1755 2050 68 23 84 45 1150 60 25 65 59
internal_value=-5.03176e-06 0.000576982 0.0013046 0.00165739 -3.16685e-05 0.000149236 -0.000656066 -0.0022787 0.000226149 0.000949213 0.00224391 -5.54347e-05 0.000214752 0.000969885 -6.96728e-05 -0.00503571 -0.00686779 -0.000624493 0.000168919 0.000235712 0.000625761 0.000424593 0.00245741 0.000567403 -6.85238e-05 0.000497291 0.00333449 0.00584661 -0.000453964 0.00188121
internal_weight=208461 9123 3278 2554 199338 23147 2018 416 21129 1157 1397 176191 8820 2009 167371 156 88 260 5845 5623 2464 2225 175 107 3159 1280 130 70 1879 124
internal_count=208461 9123 3278 2554 199338 23147 2018 416 21129 1157 1397 176191 8820 2009 167371 156 88 260 5845 5623 2464 2225 175 107 3159 1280 130 70 1879 124
is_linear=0
shrinkage=0.05


Tree=17
num_leaves=31
num_cat=0
split_feature=9 9 28 4 17 13 7 27 27 27 4 21 22 10 2 11 21 10 14 11 14 3 11 20 3 21 26 7 27 26
split_gain=1.15386 0.601993 0.795046 0.512281 0.496696 0.438403 0.414682 0.49393 0.489455 0.390525 0.352688 0.363386 0.337962 0.3842 0.364649 0.309029 0.305439 0.257268 0.315136 0.249532 0.258696 0.265944 0.244917 0.244755 0.238246 0.231813 0.21714 0.232264 0.245553 0.216966
threshold=0.082547911810839134 0.044926107234121597 0.43996535214061022 0.56686455226241794 0.92207646176911562 0.1991379310344828 0.074443768581393274 2.7492389734086111 4.060566163718204 3.2687049842677047 0.070381614567362569 1.3226480339828732 0.41444089000011791 0.7249008239243212 1.3933709607604212 0.013011294261294264 2.8474955337519767 0.20961098398169339 0.67841614906832304 0.99141615089890966 0.40788764909580616 19.724240351687694 0.69604037267080754 -0.62068512273956189 27.524594764243506 -0.14084087448848179 3.287613853401917 0.029463818325349767 3.2687049842677047 0.7320831683416088
decision_type=2 2 2 2 2 2 2 2 2 2 2 2 2 2 2 2 2 2 2 2 2 2 2 2 2 2 2 2 2 2
left_child=1 16 3 17 10 9 7 -7 -8 15 -2 23 14 19 -4 -6 29 -3 -19 20 21 -14 -5 -12 -22 -20 27 -15 -29 -1
right_child=4 2 12 22 5 6 8 -9 -10 -11 11 -13 13 26 -16 -17 -18 18 25 -21 24 -23 -24 -25 -26 -27 -28 28 -30 -31
leaf_value=-5.5308600849385531e-05 0.0068506356438923499 0.00044059185856434559 0.00021501435887828882 -0.00042284888421892239 0.0084423909182078215 -0.0074541351629588276 -0.00032582484230759645 -0.00061885970570118654 0.0075547161176800735 -4.2304199875313017e-05 0.00076136429037433118 0.0086004279310936526 -0.0089495010036625897 0.0057412469200789932 0.0035201639599879001 0.0027132123959868141 0.00061330987907358382 0.0024845749614211101 0.0035212352231610566 -0.0073566870933229282 0.0027665855055238353 -0.0025484121296294902 0.0012341450161493051 0.0035520028201960182 -0.0016542273990182823 -8.4737887397963311e-05 -0.0012011349169665445 -0.00023444747238417305 0.0026319285351524336 0.00010399414776171643
leaf_weight=173095 55 316 4580 566 32 39 93 82 25 96 165 23 20 20 85 89 1830 940 55 22 40 86 368 150 128 235 311 440 90 24385
leaf_count=173095 55 316 4580 566 32 39 93 82 25 96 165 23 20 20 85 89 1830 940 55 22 40 86 368 150 128 235 311 440 90 24385
internal_value=-4.78019e-06 -1.23027e-05 0.000404867 0.00115456 0.00183475 0.000712017 -0.000765237 -0.00282197 0.00134378 0.00233904 0.00313746 0.00253324 8.55187e-05 -0.000679421 0.000275237 0.00422837 -2.96793e-05 0.00171312 0.00204004 -0.00223337 -0.00182201 -0.00375616 0.000230014 0.00209024 -0.000601653 0.000599154 -0.000145193 0.000451894 0.000252296 -3.56378e-05
internal_weight=208461 207612 8302 2480 849 456 239 121 118 217 393 338 5822 1157 4665 121 199310 1546 1230 296 274 106 934 315 168 290 861 550 530 197480
internal_count=208461 207612 8302 2480 849 456 239 121 118 217 393 338 5822 1157 4665 121 199310 1546 1230 296 274 106 934 315 168 290 861 550 530 197480
is_linear=0
shrinkage=0.05


Tree=18
num_leaves=31
num_cat=0
split_feature=6 16 4 9 1 21 21 20 4 0 5 17 29 18 25 29 0 12 21 11 28 1 21 1 12 27 28 18 11 23
split_gain=1.0611 0.909187 0.490213 0.411581 0.306306 0.498717 0.303532 0.287359 0.271947 0.26717 0.286414 0.415517 0.246134 0.237686 0.234712 0.234158 0.2319 0.40626 0.52985 0.242658 0.231258 0.226359 0.467132 0.307867 0.225056 0.217399 0.387022 0.448198 0.315129 0.30689
threshold=0.049883617907569781 0.92207646176911562 0.72785048049690715 0.061272334301500496 -0.089296553612238247 -0.27629868111095374 2.8474955337519767 -1.0663809381551628 0.018432463901970775 -0.1181404072273624 1.1054331337008156 0.14718890554722641 4.1298719031797839 0.87555309734513287 -1.782038879313413 -0.99464523536843485 -0.17134109021358815 0.42034774436090233 -1.6544194091555806 0.051949025487256377 2.1416224947870548 -0.17755874815016445 -1.6544194091555806 -0.24813966177391908 0.69998487255124431 2.2847306137568766 1.6982338404383006 0.82097069597069605 0.021749084249084252 -2.2417181913972155
decision_type=2 2 2 2 2 2 2 2 2 2 2 2 2 2 2 2 2 2 2 2 2 2 2 2 2 2 2 2 2 2
left_child=4 2 3 15 5 9 12 -8 -5 10 -1 -12 -6 -14 20 -2 17 -13 -19 -20 -3 22 24 -24 -11 26 27 28 -16 -28
right_child=1 14 -4 8 6 -7 7 -9 -10 21 11 16 13 -15 25 -17 -18 18 19 -21 -22 -23 23 -25 -26 -27 29 -29 -30 -31
leaf_value=4.3270190290745378e-05 0.0030137162366183478 -0.004148990616780676 4.0871637753619868e-05 0.0048151850591473767 -5.7830233874594597e-05 0.00075377427296249887 0.0055113411428214147 0.00049626391419756275 0.0019933273340761136 4.8081775381195176e-06 -0.0078346658401036006 -0.00068207050734753595 -0.0065496945493997861 -0.0011543905394960587 0.0064296859825305926 0.00074754175380899234 -0.00033523270922713316 0.00099456778040067076 -0.010049804397810174 -0.0043709143127138124 -0.00010233276059408105 3.6149821573031865e-05 0.0020707578026502031 0.00062864300798912761 -0.0019657633138023193 -7.2285846008599862e-05 -0.0014106061401414789 -0.00059113441096509561 0.00090106813295182629 0.0016629710658295294
leaf_weight=2120 125 62 724 93 171769 2872 29 1897 1042 1633 21 337 26 95 27 1294 1052 42 24 87 82 14641 450 2084 159 3214 90 970 568 832
leaf_count=2120 125 62 724 93 171769 2872 29 1897 1042 1633 21 337 26 95 27 1294 1052 42 24 87 82 14641 450 2084 159 3214 90 970 568 832
internal_value=-4.54118e-06 0.000522764 0.00118929 0.00151484 -2.86741e-05 0.000133074 -5.24242e-05 0.000571776 0.00222455 5.43703e-05 -0.000335327 -0.000848844 -5.94182e-05 -0.00231371 0.000148963 0.00094717 -0.000753707 -0.00165214 -0.00378884 -0.00559878 -0.00184464 0.000130042 0.000447811 0.000884741 -0.000170036 0.000199319 0.00055032 7.15705e-05 0.00115195 0.00136295
internal_weight=208461 9123 3278 2554 199338 25522 173816 1926 1135 22650 3683 1563 171890 121 5845 1419 1542 490 153 111 144 18967 4326 2534 1792 5701 2487 1565 595 922
internal_count=208461 9123 3278 2554 199338 25522 173816 1926 1135 22650 3683 1563 171890 121 5845 1419 1542 490 153 111 144 18967 4326 2534 1792 5701 2487 1565 595 922
is_linear=0
shrinkage=0.05


Tree=19
num_leaves=31
num_cat=0
split_feature=9 1 21 22 1 4 29 4 18 12 11 21 1 3 20 1 13 4 21 2 29 6 7 9 7 12 11 12 21 18
split_gain=0.981734 0.558733 0.751775 0.53172 0.404211 0.390723 0.424575 0.379672 0.336072 0.679417 0.316084 0.310172 0.308102 0.300269 0.273016 0.294523 0.271478 0.269751 0.264257 0.261036 0.241225 0.302272 0.239317 0.237179 0.331522 0.417357 0.322862 0.250055 0.236144 0.228094
threshold=0.082547911810839134 -0.1168586616219101 -0.56216189340589251 0.43879162031037761 -0.220824372173655 0.077021099113577768 2.8688907836286073 -0.013404415907138929 0.96077533577533591 0.56579453636013854 0.013011294261294264 1.1861635676893252 -0.024812804722498968 23.058043683292606 -1.4582480047906612 -0.20046365553264048 0.021749084249084252 0.75958659109129389 -1.905908330054551 1.3933709607604212 0.64802033320640506 0.039993108303522644 0.024295975639934086 0.061272334301500496 0.06443175788333981 0.31441647597254013 0.99118925632665744 0.63044464609800366 0.42319225032383817 0.97640362511052181
decision_type=2 2 2 2 2 2 2 2 2 2 2 2 2 2 2 2 2 2 2 2 2 2 2 2 2 2 2 2 2 2
left_child=1 2 3 14 -4 -2 12 -5 18 16 -11 19 17 -13 -1 29 -10 -7 -8 -3 21 -15 -17 -22 25 -25 -27 -28 -21 -16
right_child=5 11 4 7 -6 6 8 -9 9 10 -12 13 -14 20 15 22 -18 -19 -20 28 23 -23 -24 24 -26 26 27 -29 -30 -31
leaf_value=-0.00017107709109076414 0.0040858753078820481 -8.6549564427590387e-05 0.0021805016685793287 -0.0032398325622162538 0.00064465961036001699 0.00222890443081647 -0.0080420627891409982 -0.00056131481956171768 0.003720658327074489 0.0091879276248315982 0.0013017074360201757 0.0026781684282717387 0.0075295589787419889 -5.5549505822634896e-05 0.00058703547894287502 0.00026712845550454109 -0.0020603967197750923 -0.0020372273022785966 -0.00068455601599103273 2.6071034681293358e-05 0.00040730474225541538 0.0013142221936298236 -0.00039885356882130105 0.002472492967111369 0.0023990998115290757 -0.00096073024053408129 -0.0039197415716069588 -0.010585612640716136 0.00046674568227430971 0.0030184650248636239
leaf_weight=4369 142 143064 481 147 3918 385 23 1323 24 27 24 117 25 11043 3754 5808 132 41 26 20479 7092 418 1757 30 42 43 34 24 3570 99
leaf_count=4369 142 143064 481 147 3918 385 23 1323 24 27 24 117 25 11043 3754 5808 132 41 26 20479 7092 418 1757 30 42 43 34 24 3570 99
internal_value=-4.31411e-06 -1.12529e-05 0.000229107 8.037e-05 0.000812593 0.00169247 0.00121176 -0.000829167 -0.00041456 0.000466852 0.00547677 -3.92446e-05 0.0021349 0.000153063 0.000165061 0.000293682 -0.001171 0.00181831 -0.00413808 -6.09285e-05 0.000137286 -5.59186e-06 0.000112452 0.000362685 -0.00146648 -0.00270582 -0.00424393 -0.00667803 9.14878e-05 0.000649509
internal_weight=208461 207612 21656 17257 4399 849 707 1470 256 207 51 185956 451 18843 15787 11418 156 426 49 167113 18726 11461 7565 7265 173 131 101 58 24049 3853
internal_count=208461 207612 21656 17257 4399 849 707 1470 256 207 51 185956 451 18843 15787 11418 156 426 49 167113 18726 11461 7565 7265 173 131 101 58 24049 3853
is_linear=0
shrinkage=0.05


Tree=20
num_leaves=31
num_cat=0
split_feature=6 29 1 11 10 17 8 18 28 1 0 24 1 18 19 21 1 23 20 18 19 21 1 18 7 25 15 29 14 8
split_gain=1.01558 0.661168 0.414879 0.442855 0.391126 0.400303 0.372154 0.756582 0.566653 0.379059 0.332141 0.329237 0.293804 0.439938 0.45861 0.381057 0.31494 0.291641 0.286346 0.274863 0.334481 0.27201 0.258269 0.249705 0.273359 0.396337 0.251851 0.234529 0.223037 0.217722
threshold=0.068658762245090293 2.6908337390674713 -0.08714136944584526 0.42543285879184306 0.025974512743628188 0.96536731634182915 0.25107881448789232 0.85152555301296728 0.97056051089113871 -0.15491775617110057 -0.12858387796924267 0.11788549031842389 -0.24813966177391908 0.89699381078691431 0.99141615089890966 -1.7247828268362253 -0.36072281538791467 -1.7063567097738044 4.0033329759715306 0.79387315270935976 0.63435559006211195 1.3619771134596812 0.17644434140632495 0.99784482758620696 0.037999984125418169 -0.39416026326483206 0.76754926108374399 4.1298719031797839 0.088107436733426497 0.17430195481980568
decision_type=2 2 2 2 2 2 2 2 2 2 2 2 2 2 2 2 2 2 2 2 2 2 2 2 2 2 2 2 2 2
left_child=2 -2 3 6 11 10 12 8 9 19 -6 23 13 14 15 -1 -17 -7 -19 20 -8 27 -20 24 -3 -26 -25 -4 -9 -29
right_child=1 4 21 -5 5 17 7 28 -10 -11 -12 -13 -14 -15 -16 16 -18 18 22 -21 -22 -23 -24 26 25 -27 -28 29 -30 -31
leaf_value=0.00021290374173906442 0.0014499179384131772 0.0062888566468810225 -6.1075246258954479e-05 0.00081258522763842092 -0.0057656612697883254 0.0048806470550166875 -0.00082679621886479887 -0.00096088541164642124 -0.009083118511299634 -0.0058806638946692809 0.0012398025142433852 0.0063185319495719997 0.0001182745756078389 -0.00096732933148487997 0.0077998114004731185 0.0057579294748037408 0.0014994255543297069 -0.00086167752101359938 0.0070395216007124303 0.00042398498839107696 -0.0048896819876972589 0.00016164915170583418 0.00037885981582803653 0.00061856097963755021 -0.0013355095840219145 0.0026440639382909626 -0.0031047289892197102 0.00036320573960741363 0.00011028631943302665 -0.0024685408449082995
leaf_weight=818 1970 29 160724 2374 64 26 130 607 29 51 23 28 21664 312 25 46 773 596 22 143 83 14610 43 141 99 170 67 105 2437 192
leaf_count=818 1970 29 160724 2374 64 26 130 607 29 51 23 28 21664 312 25 46 773 596 22 143 83 14610 43 141 99 170 67 105 2437 192
internal_value=-1.83366e-06 0.0008713 -1.57869e-05 0.000157742 -1.66652e-07 -0.000718333 0.000100415 -0.000382331 -0.00233032 -0.00184917 -0.00391364 0.00104077 0.000171485 0.000755453 0.00107886 0.000976222 0.00173861 -0.000313686 -0.000518002 -0.00127162 -0.00240999 -4.49259e-05 0.00263324 0.00074872 0.00167669 0.00117946 -0.000580768 -6.36692e-05 -0.000103315 -0.00146742
internal_weight=208401 3278 205123 29492 1308 774 27118 3480 436 407 87 534 23638 1974 1662 1637 819 687 661 356 213 175631 65 506 298 269 208 161021 3044 297
internal_count=208401 3278 205123 29492 1308 774 27118 3480 436 407 87 534 23638 1974 1662 1637 819 687 661 356 213 175631 65 506 298 269 208 161021 3044 297
is_linear=0
shrinkage=0.05


Tree=21
num_leaves=31
num_cat=0
split_feature=6 1 21 2 1 21 10 11 7 21 12 19 18 24 7 16 18 16 28 22 22 21 22 1 22 3 7 24 21 11
split_gain=0.948337 0.513837 0.582148 0.458487 0.305213 0.386322 0.356058 0.325206 0.283208 0.252787 0.444352 0.30483 0.400511 0.227885 0.226407 0.233948 0.311018 0.247711 0.231063 0.24796 0.226998 0.26932 0.22282 0.221866 0.220351 0.519226 0.985939 0.648169 0.521007 0.466384
threshold=0.095550165976925908 -0.089296553612238247 -0.31600299044998464 -1.0174985088454236 -0.31683075509597974 -1.6544194091555806 0.89699381078691431 0.013011294261294264 0.057718681851937619 2.8474955337519767 0.213980463980464 0.99572649572649585 0.9735677689799721 0.62587633870287684 0.074443768581393274 0.98283230179781911 0.94849690539345721 0.98237851265331477 4.9987685153272041 0.23328472881741361 0.50176575364458453 4.2710482310280211 -0.26886769779577974 -0.21052629249410418 0.23919186026745745 28.851261558471744 0.021107977691385536 -0.42326731335075768 -1.4929075930442346 0.18776709401709404
decision_type=2 2 2 2 2 2 2 2 2 2 2 2 2 2 2 2 2 2 2 2 2 2 2 2 2 2 2 2 2 2
left_child=1 2 4 -2 5 6 8 -8 13 -3 11 -11 -13 -1 15 17 -17 18 -12 -20 -18 -22 -5 -4 -6 26 -26 28 -28 -30
right_child=3 9 23 22 24 -7 7 -9 -10 10 14 12 -14 -15 -16 16 20 -19 19 -21 21 -23 -24 -25 25 -27 27 -29 29 -31
leaf_value=0.00055631139103522697 0.0039952169968369968 -4.8298622454123364e-05 0.0020464114578977416 -0.00056058451961347783 0.00011107829654156601 0.0020006503725648436 -0.0081126723600470508 -0.00061633900190011053 -0.0013587535397770504 0.0012902871394333871 0.00047605979608699768 0.010845740271421772 0.0025070876655970808 0.0031577437620309047 0.0046776041533027231 0.001845480954820232 -0.00073135778650357979 0.0025308554202534395 -0.0067947114817798141 -0.00057506512354647983 -0.0010928655636408145 -0.007128922381635869 0.00159306282965763 0.00061970698832826594 -9.8823016954867129e-05 -6.2882793994740343e-06 -0.001644001681083944 -0.00086332065371261561 -0.010061684318282806 -0.0038291674850580212
leaf_weight=1124 170 174566 292 157 20225 440 23 39 183 95 1527 24 36 91 29 100 369 140 22 59 42 33 511 4080 521 3202 57 121 71 52
leaf_count=1124 170 174566 292 157 20225 440 23 39 183 95 1527 24 36 91 29 100 369 140 22 59 42 33 511 4080 521 3202 57 121 71 52
internal_value=-1.74199e-06 -8.51916e-06 0.000180953 0.00167689 9.16641e-05 0.000701923 0.000310526 -0.00339724 0.000474962 -4.11831e-05 0.000460482 0.00305245 0.00584255 0.000751151 0.000287386 0.000231838 -0.000673672 0.000513644 0.000338017 -0.00226435 -0.00124105 -0.00374873 0.00108689 0.000714995 4.3848e-05 -0.000294058 -0.00141503 -0.00369324 -0.00559558 -0.0074268
internal_weight=208401 207563 30521 838 26149 1900 1460 62 1398 177042 2476 155 60 1215 2321 2292 544 1748 1608 81 444 75 668 4372 24249 4024 822 301 180 123
internal_count=208401 207563 30521 838 26149 1900 1460 62 1398 177042 2476 155 60 1215 2321 2292 544 1748 1608 81 444 75 668 4372 24249 4024 822 301 180 123
is_linear=0
shrinkage=0.05


Tree=22
num_leaves=31
num_cat=0
split_feature=6 1 21 2 15 1 21 10 0 7 17 5 29 4 11 21 24 27 22 3 7 14 7 21 22 2 1 3 22 27
split_gain=0.855874 0.463804 0.543922 0.413785 0.323111 0.27749 0.349736 0.321343 0.334396 0.29743 0.302563 0.359054 0.350406 0.29448 0.293498 0.245252 0.230958 0.221042 0.220492 0.40676 0.511454 0.671816 0.352759 0.259814 0.205386 0.20424 0.204726 0.419346 0.20199 0.245442
threshold=0.095550165976925908 -0.08714136944584526 -0.29218633016821838 -1.0174985088454236 0.013011294261294264 -0.31683075509597974 -1.6544194091555806 0.89699381078691431 0.057396772428210958 0.057718681851937619 0.99118925632665744 0.90862309124144436 4.8395337756512502 0.18136620257499095 0.013011294261294264 0.77112649295601476 -1.6366848091811048 2.5673071947105801 0.3832959318502302 27.987393428514434 0.021107977691385536 0.34647941515967684 0.031620083175031358 -1.2668312141537832 -0.50827548631031594 1.1389651437920094 0.35826710547264357 46.768942650461817 -0.12768302028855058 4.9994001778557928
decision_type=2 2 2 2 2 2 2 2 2 2 2 2 2 2 2 2 2 2 2 2 2 2 2 2 2 2 2 2 2 2
left_child=1 2 5 -2 -5 6 7 8 9 10 17 12 -12 -13 -9 -3 -11 -1 -7 20 -20 22 23 -22 -10 26 -17 -28 -6 -30
right_child=3 15 -4 4 28 18 -8 14 24 16 11 13 -14 -15 -16 25 -18 -19 19 -21 21 -23 -24 -25 -26 -27 27 -29 29 -31
leaf_value=0.00049646523890171869 0.003795456154518487 -6.8624513791855983e-05 0.00068947495570009722 0.0071363486072403342 -0.00052556388457863554 9.0475348821466141e-05 0.0019003067721614861 -0.0077070387262527067 0.0012968601919488894 0.0027752444363917071 0.0027764593381661832 0.001873856035526842 -0.004559154904240535 0.0076601315847446413 -0.00058552208714760261 -5.5109668121887568e-06 -0.002541959831432905 -0.0018071823494935062 -0.00044438877699935672 -0.000132277819912645 -0.0062258008157923114 -0.0010349085897832073 -0.0028479986169259067 -0.013769778497517111 0.0064829700722891306 0.00053367495111780879 0.0015973431342514478 0.00017356070694631042 0.0011465595584568018 0.0065602647505742925
leaf_weight=886 170 141908 4328 21 192 22673 442 23 42 24 41 45 27 43 39 27195 137 118 233 2079 21 79 24 25 35 2317 590 4189 433 22
leaf_count=886 170 141908 4328 21 192 22673 442 23 42 24 41 45 27 43 39 27195 137 118 233 2079 21 79 24 25 35 2317 590 4189 433 22
internal_value=-1.65489e-06 -8.0932e-06 0.00016906 0.00159304 0.00103255 8.57501e-05 0.000668052 0.000295 0.000451214 0.000264515 0.000544024 0.00259261 -0.000136211 0.00470124 -0.00322738 -3.9627e-05 -0.00174933 0.000225718 4.16847e-05 -0.00040782 -0.00190743 -0.00419528 -0.00776197 -0.0103258 0.00365418 8.03748e-05 4.75263e-05 0.000349336 0.000834433 0.00140832
internal_weight=208401 207563 31364 838 668 27036 1902 1460 1398 1321 1160 156 68 88 62 176199 161 1004 25134 2461 382 149 70 46 77 34291 31974 4779 647 455
internal_count=208401 207563 31364 838 668 27036 1902 1460 1398 1321 1160 156 68 88 62 176199 161 1004 25134 2461 382 149 70 46 77 34291 31974 4779 647 455
is_linear=0
shrinkage=0.05


Tree=23
num_leaves=31
num_cat=0
split_feature=6 6 5 15 7 17 7 3 0 8 28 22 9 12 15 11 4 8 12 26 9 16 17 6 17 19 11 20 26 7
split_gain=0.772426 0.319976 0.322597 0.391646 0.519989 0.77473 0.479732 0.820535 0.41465 0.241223 0.313682 0.264998 0.332124 0.267376 0.234898 0.269735 0.295161 0.259446 0.297423 0.232177 0.323419 0.213722 0.313055 0.204535 0.272664 0.355452 0.263728 0.226546 0.208868 0.196712
threshold=0.095550165976925908 0.022575088474763569 1.1921343477973747 0.63044464609800366 0.019819553397143277 0.60435571687840295 0.032875859596884452 46.578473119520595 0.052289812497186235 0.19453994670458444 -0.65591688817014104 0.2211486750853677 0.054344624818186138 0.41666025394382461 0.013011294261294264 0.27509917607567902 0.39010087810213756 0.30521348985795044 0.51315890727202784 -0.67984327691051583 0.05171360885477666 0.69264507422402166 0.35931174089068835 0.030122535209064997 0.97424845269672866 0.99572649572649585 0.97825091575091583 -0.49701882210917686 2.5180350333812767 0.024801406550968266
decision_type=2 2 2 2 2 2 2 2 2 2 2 2 2 2 2 2 2 2 2 2 2 2 2 2 2 2 2 2 2 2
left_child=1 -1 19 4 -4 6 7 21 9 10 -7 13 -13 -11 -2 16 -16 -18 -19 20 -3 22 -6 28 25 -25 -27 -28 -21 -24
right_child=14 2 3 -5 5 8 -8 -9 -10 11 -12 12 -14 -15 15 -17 17 18 -20 23 -22 -23 29 24 -26 26 27 -29 -30 -31
leaf_value=-5.872036923091639e-05 0.0066116419705477634 0.00039697543609941026 0.00014310790824404826 -1.6464594580145014e-05 -0.0077380094096645138 -0.0055978653910902466 -0.00014576064739699044 -9.8998029716312896e-05 0.0010837042563288512 -0.0018123968585135311 -0.00017746934746513379 -0.0051845976745111197 0.00057253827804798322 0.0021942597111919895 0.0016917110982393219 0.0027884183435946328 -0.0060633795522153384 -0.001758808505806444 0.002095994652137795 1.4629209976075423e-05 0.0022599829854254155 -0.010484997394748709 -0.0025493863501792982 0.00022903097304838137 -0.00019880967877308677 0.001168341613918316 0.0092689870187314238 0.0028733578619883501 -0.0036467573920023057 -0.0077306910124404927
leaf_weight=123864 22 2400 1221 15565 77 28 101 89 281 249 571 104 33 50 353 239 20 116 88 31161 258 22 90 27149 3926 197 20 45 39 23
leaf_count=123864 22 2400 1221 15565 77 28 101 89 281 249 571 104 33 50 353 239 20 116 88 31161 258 22 90 27149 3926 197 20 45 39 23
internal_value=-1.57214e-06 -7.68854e-06 6.78322e-05 -0.000116421 -0.00064579 -0.00120647 -0.00312756 -0.0041281 -0.00061963 -0.00108208 -0.000430843 -0.00197678 -0.00379784 -0.00114239 0.00151339 0.00137594 0.00079087 -0.000628758 -9.59522e-05 0.000120128 0.000577809 -0.00581956 -0.00527935 0.000100675 0.000190901 0.000246719 0.00207956 0.00484124 1.00525e-05 -0.00360399
internal_weight=208401 207563 83699 18504 2939 1718 402 301 1316 1035 599 436 137 299 838 816 577 224 204 65195 2658 212 190 62537 31337 27411 262 65 31200 113
internal_count=208401 207563 83699 18504 2939 1718 402 301 1316 1035 599 436 137 299 838 816 577 224 204 65195 2658 212 190 62537 31337 27411 262 65 31200 113
is_linear=0
shrinkage=0.05


Tree=24
num_leaves=31
num_cat=0
split_feature=6 29 26 7 23 7 28 17 15 1 11 0 11 12 2 13 6 3 25 27 4 21 21 0 5 5 21 2 16 7
split_gain=0.717519 0.524072 0.353837 0.295854 0.447924 0.337994 0.656337 0.295507 0.309507 0.293437 0.334897 0.27081 0.270594 0.269865 0.261991 0.245902 0.409598 0.494222 0.240837 0.41498 0.230104 0.228505 0.226225 0.235063 0.282413 0.219331 0.21016 0.227242 0.255495 0.259341
threshold=0.068658762245090293 2.6908337390674713 4.0593643477891375 0.074443768581393274 0.67268974814628868 0.057718681851937619 2.3872271786323007 0.99572649572649585 0.15281593406593411 -0.08714136944584526 0.44297806848788002 -0.29887274450162737 0.56465997770345611 0.213980463980464 -0.91410447439487175 0.17902930402930406 0.035616928615650779 30.036833640746284 -0.33379905615815314 2.9759853343249598 0.47408483339238411 0.58636356406604151 -0.32386578839718982 -0.24140355053911758 1.2717994103093386 0.50645715736547803 1.3619771134596812 1.7112089254611111 0.96077533577533591 0.025905405528545516
decision_type=2 2 2 2 2 2 2 2 2 2 2 2 2 2 2 2 2 2 2 2 2 2 2 2 2 2 2 2 2 2
left_child=9 20 12 5 25 7 -7 18 -9 10 14 -8 -3 -10 15 -1 -17 22 19 -4 -2 -22 23 -18 -25 -5 27 28 -11 -30
right_child=1 2 3 4 -6 6 11 8 13 26 -12 -13 -14 -15 -16 16 17 -19 -20 -21 21 -23 -24 24 -26 -27 -28 -29 29 -31
leaf_value=-2.9273928783750327e-05 0.0016676090596271257 -0.00045271607048787864 0.0062981030650969064 0.0057165905687725175 0.0085593842457658172 -0.0076557839712636036 0.0025045181317103057 -8.3705454653681957e-05 0.0096777183935046196 -6.7744707160160027e-05 0.00073890984486603775 -0.0012464753812598801 -0.003343281964220009 0.0027313743918684539 0.00014094565103195804 -5.5728553812125242e-06 -0.0021124649192056349 -0.001027820847190489 -0.0016996673023742107 -0.0007440841537362968 8.1340123030473589e-05 0.0021868352126400265 -0.0012252709832146617 -0.0040414306678940191 -0.010353924756054768 0.00037806623915373364 0.00014384901955999665 0.00010563236749146878 -0.0014668033434827811 -0.0002701518484328891
leaf_weight=2038 1228 548 35 24 27 33 69 32 27 139237 2115 159 95 29 24298 533 31 368 81 52 576 166 38 34 37 97 14610 19539 629 1616
leaf_count=2038 1228 548 35 24 27 33 69 32 27 139237 2115 159 95 29 24298 533 31 368 81 52 576 166 38 34 37 97 14610 19539 629 1616
internal_value=-1.49353e-06 0.000732411 -4.34611e-05 0.000765193 0.00273631 0.000200927 -0.00106521 0.00149179 0.00383897 -1.32218e-05 0.000132716 -0.000111306 -0.000879783 0.0060805 8.58852e-05 -0.000348626 -0.000973832 -0.00198974 0.000262311 0.00208898 0.00124756 0.000552381 -0.00451822 -0.005745 -0.00733104 0.00143695 -3.77278e-05 -5.42029e-05 -7.62765e-05 -0.000605427
internal_weight=208401 3278 1308 665 148 517 261 256 88 205123 29492 228 643 56 27377 3079 1041 508 168 87 1970 742 140 102 71 121 175631 161021 141482 2245
internal_count=208401 3278 1308 665 148 517 261 256 88 205123 29492 228 643 56 27377 3079 1041 508 168 87 1970 742 140 102 71 121 175631 161021 141482 2245
is_linear=0
shrinkage=0.05


Tree=25
num_leaves=31
num_cat=0
split_feature=9 1 11 22 0 12 3 24 7 11 0 1 27 12 20 27 12 1 26 26 28 22 17 7 0 14 22 19 7 26
split_gain=0.767401 0.366022 0.776465 0.448802 0.315871 0.348146 0.275242 0.406715 0.296687 0.214859 0.219391 0.212495 0.329251 0.396096 0.292745 0.285879 0.285867 0.266368 0.365393 0.248109 0.285315 0.225164 0.211317 0.252295 0.252034 0.208503 0.201295 0.197818 0.213837 0.231097
threshold=0.082547911810839134 -0.15033950053851106 0.1991379310344828 0.42227583819896175 -0.29887274450162737 0.73594242015294664 25.513609504604002 0.15161945956078365 0.022271877690774582 0.10389805097451275 0.05311106223516205 -0.24813966177391908 2.4214421414930949 0.15571120689655174 -2.6936803007986994 1.8594629253544825 0.043290854572713651 -0.36072281538791467 2.5180350333812767 2.5180350333812767 0.75894164706991685 -0.18844499344243398 0.97825091575091583 0.035856926132234263 -0.18699094929206941 0.41149749373433592 -0.099196681422066904 0.89610194902548745 0.049582846230057716 1.3213393612465201
decision_type=2 2 2 2 2 2 2 2 2 2 2 2 2 2 2 2 2 2 2 2 2 2 2 2 2 2 2 2 2 2
left_child=1 2 3 11 -2 9 7 8 -5 10 -6 12 14 -14 26 16 -16 18 21 27 -21 -18 23 -15 -25 -10 -1 28 29 -19
right_child=4 -3 -4 6 5 -7 -8 -9 25 -11 -12 -13 13 22 15 -17 17 19 -20 20 -22 -23 -24 24 -26 -27 -28 -29 -30 -31
leaf_value=-0.0016222939997589073 0.0026446891920425056 -2.4368149858582816e-05 0.00091162124720274053 -0.0012372975487179669 -0.0019771089476929966 0.0036158528074988032 -0.0005146808600646123 0.001749612766560977 -0.0066358706978223245 0.0011209877210181473 0.0025779225019505248 -3.2087361208200048e-05 0.0013630717782466234 0.0018192873868559088 -0.0037355250180957631 0.0023991416554900212 0.0035005853137653783 0.00081001952063387546 -0.0024269780268271765 0.0073143163945392844 0.00054274516645818943 0.0011309080223021117 -0.00068178314129205416 -0.001418522890612838 -0.0066968666546388849 -0.0017130816293259464 0.002447041309076465 -0.00042072804395621821 -0.0019519378153811399 0.0058789567191801645
leaf_weight=195 353 193634 3293 82 152 84 799 46 76 224 32 6355 212 21 36 273 202 1005 45 28 35 199 429 42 49 30 36 548 69 23
leaf_count=195 353 193634 3293 82 152 84 799 46 76 224 32 6355 212 21 36 273 202 1005 45 28 35 199 429 42 49 30 36 548 69 23
internal_value=-3.25962e-07 -6.44189e-06 0.00023925 3.49012e-05 0.00150341 0.000684565 -0.000956365 -0.00246451 -0.00349562 8.10642e-05 -0.00118493 0.000139367 0.000455467 -0.000468836 0.000713819 0.00087344 0.000683249 0.000757101 0.00184519 0.000472974 0.00355233 0.00232461 -0.0011867 -0.00312071 -0.00426071 -0.00524263 -0.000988112 0.000355041 0.000742572 0.00092343
internal_weight=208607 207762 14128 10835 845 492 1033 234 188 408 184 9802 3447 753 2694 2463 2190 2154 446 1708 63 401 541 112 91 106 231 1645 1097 1028
internal_count=208607 207762 14128 10835 845 492 1033 234 188 408 184 9802 3447 753 2694 2463 2190 2154 446 1708 63 401 541 112 91 106 231 1645 1097 1028
is_linear=0
shrinkage=0.05


Tree=26
num_leaves=31
num_cat=0
split_feature=9 1 21 22 4 12 22 0 12 2 5 27 5 22 1 12 19 27 3 3 27 19 16 23 11 21 8 2 21 8
split_gain=0.69258 0.334244 0.685794 0.392278 0.367377 0.285559 0.342439 0.285074 0.314202 0.275212 0.27298 0.256297 0.244228 0.225366 0.275379 0.38431 0.256596 0.253512 0.324285 0.288828 0.262403 0.208378 0.20309 0.20043 0.19391 0.252283 0.190971 0.184989 0.274914 0.231638
threshold=0.082547911810839134 -0.21052629249410418 -1.0260563821442468 0.59058948215875218 -0.074665960286240271 0.77632389162561588 0.43042375822496332 -0.29887274450162737 0.73594242015294664 -0.62435222769376519 0.73888742114157357 1.4686945551799064 1.6172897682793559 -0.41112854060619275 -0.36072281538791467 0.22707856598016782 0.97424845269672866 2.4214421414930949 64.400042387061418 40.3372840175088 1.7123245512156398 0.91341829085457282 0.93939280359820099 -1.529725754622512 0.10389805097451275 -2.974585968978666 0.56097668488586472 1.1389651437920094 0.5495535086418647 0.1894391614866219
decision_type=2 2 2 2 2 2 2 2 2 2 2 2 2 2 2 2 2 2 2 2 2 2 2 2 2 2 2 2 2 2
left_child=1 2 3 5 -5 6 13 9 24 11 -10 -2 -8 14 15 -1 21 20 19 -19 23 -17 -22 -15 25 -9 -16 29 -29 -3
right_child=7 27 -4 4 -6 -7 12 8 10 -11 -12 -13 -14 17 26 16 -18 18 -20 -21 22 -23 -24 -25 -26 -27 -28 28 -30 -31
leaf_value=0.00081078109499014585 0.0036083968898540813 -1.8490328502586537e-05 0.0012388282000833743 -0.0083242849446833137 -0.0012797439265928153 0.002278289645107782 -0.0011310032682558813 0.0037727164719557472 0.0068076190059738508 0.0079277115028823838 0.001026089556458197 0.00082289111967292095 -0.005792582982556067 -0.001421516585844529 0.00035707983996489305 0.0030513363458761354 -8.2461216236249754e-05 -0.0003922985604198329 0.0041858840561299409 -0.0028969816171955237 0.0048581979876249348 0.008033403165118639 0.00096521958611167603 8.9622947919565382e-05 0.001064938339186483 -0.0018254544611793209 -0.0033295397071116091 3.715473981691383e-05 0.0004808218901592551 -0.00021316706140428137
leaf_weight=305 158 154085 1615 20 248 154 128 23 35 22 49 173 36 256 1450 41 26 273 27 199 38 43 283 1536 224 161 36 25967 4034 16962
leaf_count=305 158 154085 1615 20 248 154 128 23 35 22 49 173 36 256 1450 41 26 273 27 199 38 43 283 1536 224 161 36 25967 4034 16962
internal_value=-3.09653e-07 -6.11978e-06 0.000340919 5.65256e-05 -0.00180546 0.000159819 9.00641e-05 0.00142824 0.000650336 0.00251245 0.00343506 0.00215253 -0.00215428 0.000171622 0.00058579 0.00172454 0.00425816 -0.000129807 -0.00114344 -0.0014483 0.00010957 0.00560168 0.00142607 -0.000126254 7.7011e-05 -0.00112568 0.000267767 -1.77092e-05 9.68112e-05 -3.77956e-05
internal_weight=208607 207762 6714 5099 268 4831 4677 845 492 353 84 331 164 4513 1901 415 110 2612 499 472 2113 84 321 1792 408 184 1486 201048 30001 171047
internal_count=208607 207762 6714 5099 268 4831 4677 845 492 353 84 331 164 4513 1901 415 110 2612 499 472 2113 84 321 1792 408 184 1486 201048 30001 171047
is_linear=0
shrinkage=0.05


Tree=27
num_leaves=31
num_cat=0
split_feature=9 0 12 5 2 6 5 2 15 7 6 22 25 9 7 5 9 17 4 9 17 7 7 22 7 29 28 13 17 18
split_gain=0.625053 0.257279 0.286222 0.250582 0.248379 0.229954 0.311492 0.608701 0.476728 0.421416 0.310762 0.296919 0.261926 0.282065 0.25826 0.305425 0.293919 0.337972 0.255248 0.331496 0.321529 0.399613 0.364045 0.344058 0.48304 0.232973 0.226322 0.224913 0.22041 0.225169
threshold=0.082547911810839134 -0.29887274450162737 0.69604037267080754 0.73888742114157357 -0.62435222769376519 0.026273807849961476 1.1534546430215469 -0.6851586080077583 0.57826678765880224 0.019541397667530599 0.068658762245090293 -0.15210831078716883 -1.782038879313413 0.054344624818186138 0.022098448269408894 1.4031722384600824 0.032808521110558299 0.68996032956972853 0.03462847290324244 0.035949340795576955 0.54824932666410164 0.025905405528545516 0.032875859596884452 -0.0054425765148026946 0.037999984125418169 3.3111631259721928 -1.1726858517187699 0.70743057674702481 0.90557765988800487 0.92207646176911562
decision_type=2 2 2 2 2 2 2 2 2 2 2 2 2 2 2 2 2 2 2 2 2 2 2 2 2 2 2 2 2 2
left_child=5 4 -3 27 28 -1 12 8 9 -8 11 25 13 -7 -13 -16 17 -17 19 -11 22 -22 -20 -23 -25 -10 -9 -4 29 -2
right_child=1 2 3 -5 -6 6 7 26 10 18 -12 14 -14 -15 15 16 -18 -19 20 -21 21 23 -24 24 -26 -27 -28 -29 -30 -31
leaf_value=-3.9039657727075281e-05 0.0026216167859656123 -1.4152956044039307e-05 0.0023660852662509401 0.00098839827222176459 0.0075313258503394379 -0.00043800029017592389 0.00023673658992179824 -0.0030878754269162366 -9.0895561131186902e-05 -0.0027701199118227542 0.0013417281930685919 -0.00027658810994685194 0.00015616329445407271 -0.0035311720498268392 -0.00025215341887162187 -0.0076804043422013801 -0.0016882540925613949 -0.0025322274836071302 -0.0075127047537218621 0.00082138086095255862 -0.00027879178301805656 -0.0020928404923902704 -0.0014184164980083312 -0.011351675999661288 -0.002647023428717683 -0.0023696877233461183 0.00012869342769126598 0.0097748317709192636 0.00088458467135587551 0.0079126271729667973
leaf_weight=148511 124 386 21 65 22 407 233 55 2711 129 258 452 44064 90 195 53 257 80 69 128 148 107 38 30 34 117 9596 20 183 24
leaf_count=148511 124 386 21 65 22 407 233 55 2711 129 258 452 44064 90 195 53 257 80 69 128 148 107 38 30 34 117 9596 20 183 24
internal_value=-2.94174e-07 0.00135683 0.00061782 0.00291915 0.00238683 -5.8138e-06 7.74659e-05 -0.000122204 -0.000567629 -0.00159942 -0.000338398 -0.000450551 0.000143289 -0.000998132 -0.00117426 -0.00186785 -0.00267569 -0.00458376 -0.00222581 -0.000981357 -0.00297657 -0.00218102 -0.00534838 -0.00382739 -0.00672733 -0.000185174 0.000110363 0.00598011 0.0020449 0.00347962
internal_weight=208607 845 492 106 353 207762 59251 14690 5039 916 4123 3865 44561 497 1037 585 390 133 683 257 426 319 107 171 64 2828 9651 41 331 148
internal_count=208607 845 492 106 353 207762 59251 14690 5039 916 4123 3865 44561 497 1037 585 390 133 683 257 426 319 107 171 64 2828 9651 41 331 148
is_linear=0
shrinkage=0.05


Tree=28
num_leaves=31
num_cat=0
split_feature=1 11 8 6 1 27 8 22 29 4 18 15 6 22 10 15 29 23 16 24 4 22 27 29 22 8 28 8 10 6
split_gain=0.521465 0.605425 0.270423 0.225441 0.223091 0.299437 1.0152 0.345483 0.56329 0.395641 0.292031 0.21278 0.211737 0.27669 0.26584 0.263499 0.211631 0.289756 0.203876 0.265382 0.200862 0.20183 0.200675 0.396645 0.214157 0.1899 0.376955 0.212314 0.20378 0.222914
threshold=-0.24813966177391908 0.06926536731634185 0.17622663946994385 0.095550165976925908 -0.432366369589264 2.4214421414930949 0.29474256300438156 -0.56363360528602413 3.6410454669288432 0.23227607765734185 0.88744377811094466 0.8602593440122045 0.060817117526253732 0.12112858959674738 0.013011294261294264 0.46727189502593841 4.8395337756512502 -1.7477907934493848 0.98283230179781911 -0.86211471384640714 0.064127949328491002 0.57757690452645449 1.7123245512156398 3.0751387285281666 -0.14626194971545234 0.26310658713922214 1.2189611053531071 0.56097668488586472 0.034632683658170925 0.068658762245090293
decision_type=2 2 2 2 2 2 2 2 2 2 2 2 2 2 2 2 2 2 2 2 2 2 2 2 2 2 2 2 2 2
left_child=1 4 -3 -2 5 22 10 16 11 -10 -7 -9 18 14 15 -14 17 -8 -6 -20 21 -4 23 -1 -24 26 -16 28 -27 -30
right_child=3 2 20 -5 12 6 7 8 9 -11 -12 -13 13 -15 25 -17 -18 -19 19 -21 -22 -23 24 -25 -26 27 -28 -29 29 -31
leaf_value=0.0017890421326424426 -1.4109761885070798e-05 0.0025972646998204483 0.0026919733688676693 0.001823724641560589 -1.1163616792820846e-05 -0.0014243949120017615 0.0048780343827924564 -8.2378921911631741e-05 0.0010876242269702299 0.0058699038945842297 -0.0086289303580251268 -0.0061674317438155414 -6.2056013121036813e-05 -0.0024704473366879321 0.0011008711220082744 -0.0045502356946512702 -0.0045829576669839797 -0.0028338911734392931 4.1306744860385054e-06 0.0039588437081058657 0.00068118251737364654 -0.0014784672920182913 0.0059739012864655728 -0.0044782342870944535 0.0018663943896085368 0.0027540686358406676 -0.0052783139882376416 -0.0024792400323069442 0.0023278668291025323 -0.0018838022157849214
leaf_weight=195 203491 309 240 167 1550 22 21 51 86 87 39 20 68 193 55 63 37 29 93 78 1166 33 51 29 84 144 40 39 57 70
leaf_count=195 203491 309 240 167 1550 22 21 51 86 87 39 20 68 193 55 63 37 29 93 78 1166 33 51 29 84 144 40 39 57 70
internal_value=-2.79463e-07 0.00050684 0.0012552 -1.26027e-05 9.8173e-05 0.000852103 -0.000103345 0.000988984 0.00195355 0.00349259 -0.00603057 -0.00179648 -0.00013293 -0.000847116 -0.000262596 -0.00222049 -0.00171625 0.000405118 0.000169593 0.00180803 0.000967021 0.00218785 0.00189538 0.000977654 0.00341812 0.000370699 -0.0015851 0.000970057 0.00146645 6.47444e-06
internal_weight=208607 4949 1748 203658 3201 751 392 331 244 173 61 71 2450 729 536 131 87 50 1721 171 1439 273 359 224 135 405 95 310 271 127
internal_count=208607 4949 1748 203658 3201 751 392 331 244 173 61 71 2450 729 536 131 87 50 1721 171 1439 273 359 224 135 405 95 310 271 127
is_linear=0
shrinkage=0.05


Tree=29
num_leaves=31
num_cat=0
split_feature=6 27 3 1 21 22 5 3 23 1 18 1 21 28 18 11 13 15 3 27 20 12 3 19 19 2 7 2 21 6
split_gain=0.485651 0.319822 0.341552 0.217704 0.707194 0.346878 0.271234 0.237193 0.222109 0.222769 0.220679 0.211989 0.243069 0.300254 0.20855 0.196438 0.300638 0.205437 0.196455 0.263659 0.338643 0.251164 0.222742 0.227525 0.191125 0.188508 0.185036 0.182529 0.23452 0.214626
threshold=0.074574500592989659 2.5673071947105801 15.968459505368687 -0.15033950053851106 -0.67609000376438155 0.43879162031037761 1.6172897682793559 27.069341325774989 -1.8414263751405533 -0.24813966177391908 0.72728295096716156 0.069666702444067377 -0.75508050562995443 1.5058154961188477 0.99134182908545743 0.021749084249084252 0.7249008239243212 0.12660256410256412 18.63070291888447 3.2687049842677047 -3.2552081225036003 0.50869630973986701 24.954415126405852 0.99572649572649585 0.99572649572649585 -1.0174985088454236 0.074443768581393274 1.1389651437920094 0.5495535086418647 0.060817117526253732
decision_type=2 2 2 2 2 2 2 2 2 2 2 2 2 2 2 2 2 2 2 2 2 2 2 2 2 2 2 2 2 2
left_child=3 2 -2 4 5 8 -7 -8 -1 10 -10 12 13 -3 -14 16 18 -17 -15 -20 22 24 -21 -24 -22 -4 27 -5 29 -29
right_child=1 11 25 26 -6 6 7 -9 9 -11 -12 -13 14 15 -16 17 -18 -19 19 20 21 -23 23 -25 -26 -27 -28 28 -30 -31
leaf_value=-0.00056283222365500379 0.00637284534983337 -0.003482326559512125 0.0018671597317457555 -4.355510413080968e-05 0.00095602506929153236 -0.00061553682288029534 -0.0050889412830792263 3.8549094118506594e-05 0.0013052058885536051 1.5761912411155473e-05 0.00028447220951902726 -0.0018421958083819523 0.0011530145156939398 -0.0028006499603342935 0.006014466216687912 -0.003776293218720193 0.0059254464793152047 -5.1403531235539258e-05 0.0045727267365924321 0.0059948716317124381 -0.00055153278877869956 0.0019988526218778289 0.0051013111815099484 -0.00061106285478066031 -0.0066903180020744914 0.00066558715340731347 0.0031148590704802664 4.5312777878032864e-05 0.00044762307536658718 -0.0021580441229292909
leaf_weight=1116 30 62 447 163255 2443 813 67 34 735 5852 1894 146 104 39 28 51 28 135 43 26 21 23 23 72 32 1210 47 25728 3992 111
leaf_count=1116 30 62 447 163255 2443 813 67 34 735 5852 1894 146 104 39 28 51 28 135 43 26 21 23 23 72 32 1210 47 25728 3992 111
internal_value=-2.655e-07 0.000689645 0.00108546 -8.70162e-06 0.000189727 1.16216e-05 -0.000919125 -0.00336286 0.000100264 0.00018752 0.000569843 -0.000111958 0.000255749 -0.000202917 0.00218423 0.000209504 0.000986371 -0.00107274 0.000490693 0.00102554 0.000251277 -0.00236446 0.00189422 0.000771933 -0.00425797 0.000989729 -2.20108e-05 -2.27744e-05 9.09515e-05 3.58475e-05
internal_weight=208607 2520 1687 206087 12954 10511 914 101 9597 8481 2629 833 687 555 132 493 307 186 279 240 197 76 121 95 53 1657 193133 193086 29831 25839
internal_count=208607 2520 1687 206087 12954 10511 914 101 9597 8481 2629 833 687 555 132 493 307 186 279 240 197 76 121 95 53 1657 193133 193086 29831 25839
is_linear=0
shrinkage=0.05


Tree=30
num_leaves=31
num_cat=0
split_feature=9 18 3 9 8 25 7 7 12 18 18 0 15 21 16 15 1 29 11 18 21 1 0 23 17 25 24 7 17 4
split_gain=0.608278 0.577424 0.316336 0.283188 0.3629 0.322688 0.313425 0.297433 0.423702 0.496691 0.295814 0.264596 0.25547 0.249052 0.227588 0.22331 0.217908 0.222722 0.222864 0.201023 0.488778 0.313031 0.193795 0.228885 0.334592 0.318951 0.221956 0.198702 0.191695 0.189898
threshold=0.046309168071776118 0.68122520598108027 29.668648670230692 0.082547911810839134 0.2849726998324133 -1.782038879313413 0.042215881221404315 0.036921296382397766 0.1731634182908546 0.95203754578754596 0.99118925632665744 0.099432576572632062 0.43233140067134579 -2.5115264749683388 0.95670914542728647 0.99118925632665744 -0.36072281538791467 4.1298719031797839 0.017316341829085462 0.98283230179781911 -2.2218209208485233 -0.18455482210356991 0.15604796567573279 -0.93506248831865724 0.99572649572649585 -1.5047944853100799 -1.8067465104951048 0.057718681851937619 0.96951312576312587 0.94206000897616771
decision_type=2 2 2 2 2 2 2 2 2 2 2 2 2 2 2 2 2 2 2 2 2 2 2 2 2 2 2 2 2 2
left_child=16 2 -2 5 -5 6 -3 8 -7 13 14 -4 -12 -10 -11 -15 -1 -18 -19 20 -16 -22 23 24 -6 -25 -26 -27 -23 -9
right_child=1 3 11 4 22 7 -8 29 9 10 12 -13 -14 15 19 -17 17 18 -20 -21 21 28 -24 25 26 27 -28 -29 -30 -31
leaf_value=0.0016491251979691788 0.0046813234193472282 -0.0063561096579792939 0.0013218764800043915 -0.0039842876521023838 0.0032376681728724988 -0.00058726848880447536 -0.0006939418128846835 -0.00017851650057063356 -0.0025362249159325777 0.00094924920840285627 0.0024659778634717657 -0.00043215136788785465 -0.0024750608609038147 0.00087623594510259 -0.0011617910577280616 -0.0043643483625991006 -1.6771918428154101e-05 0.0019013699411233474 -0.0019023250170620615 0.0079743259919582525 0.0094804056940182794 0.0055020607900013079 0.0046745990979529563 0.0059084511638502592 -0.0052343931072391572 -0.004543283797608203 0.0010545341587783967 0.00027128971625967724 0.0018334716753061139 0.0014373531700837237
leaf_weight=196 63 37 1536 33 209 454 72 3784 65 77 59 250 47 635 44 21 199807 45 267 29 29 76 42 24 20 23 47 314 67 191
leaf_count=196 63 37 1536 33 209 454 72 3784 65 77 59 250 47 635 44 21 199807 45 267 29 29 76 42 24 20 23 47 314 67 191
internal_value=1.02603e-07 0.000420911 0.00119918 0.000196029 0.00113608 7.8336e-05 -0.00261596 0.000130985 0.000705932 0.00121691 0.00256618 0.00107635 0.00027514 0.000415955 0.00332037 0.000708473 -1.72243e-05 -1.88563e-05 -0.00135372 0.00406558 0.0035408 0.00474378 0.00138494 0.00116804 0.00225199 0.000339314 -0.000822758 -5.73014e-05 0.00378321 -0.000100873
internal_weight=208563 8248 1849 6399 712 5687 109 5578 1603 1149 428 1786 106 721 322 656 200315 200119 312 245 216 172 679 637 276 361 67 337 143 3975
internal_count=208563 8248 1849 6399 712 5687 109 5578 1603 1149 428 1786 106 721 322 656 200315 200119 312 245 216 172 679 637 276 361 67 337 143 3975
is_linear=0
shrinkage=0.05


Tree=31
num_leaves=31
num_cat=0
split_feature=9 16 4 22 2 12 28 1 28 2 3 13 10 4 3 29 1 21 8 5 18 1 22 24 21 7 10 24 19 16
split_gain=0.548971 0.53925 0.421894 0.340078 0.343841 0.32779 0.343765 0.27011 0.592139 0.233188 0.263377 0.222084 0.250317 0.220723 0.207393 0.251115 0.205168 0.603299 0.419904 0.609567 0.708608 0.405214 0.340124 0.473855 0.419824 0.362603 0.330435 0.277824 0.20934 0.208323
threshold=0.046309168071776118 0.90476011994003003 0.72785048049690715 0.6569759421380087 2.8126748889638282 0.77092066449309116 0.21145469413175697 0.45973081760014339 4.1891202554645419 0.32475381260770436 61.598687715829321 0.92274535809018576 0.94713553795994421 0.0099712736345348076 73.586318388836901 3.3111631259721928 -0.056876825400425261 -0.021511782317571424 0.20880752126262148 1.0970510139084702 0.70743057674702481 -0.1267942350305705 0.2211486750853677 -0.43669558610479348 -1.905908330054551 0.023226323532269836 0.26201372997711675 -0.80765694899976992 0.98283230179781911 0.98268365817091463
decision_type=2 2 2 2 2 2 2 2 2 2 2 2 2 2 2 2 2 2 2 2 2 2 2 2 2 2 2 2 2 2
left_child=16 2 13 5 -5 7 -7 14 -9 10 -10 12 -6 -2 -3 -16 17 18 28 -20 21 26 -22 24 -24 -26 -21 -27 -1 -30
right_child=1 3 -4 4 11 6 -8 8 9 -11 -12 -13 -14 -15 15 -17 -18 -19 19 20 22 -23 23 -25 25 27 -28 -29 29 -31
leaf_value=8.3453268377023935e-05 0.0029187011622739461 -2.9608723995755469e-06 -0.00017297454923148394 -0.0017907692857289268 0.0029322567543915838 0.0067878868222431919 0.0012623570030448608 0.0024283362561377492 -0.00092698916331365982 0.00014287702106230427 -0.0081480484506439264 0.0041008977648743896 -0.0015387390787138281 0.0011801326412383658 0.0003428189679592227 0.0075757761765271429 -4.1832083881650786e-05 0.00075966261066213125 -4.9487097654782165e-06 -0.0085148949747062518 -0.00052494075771586401 -0.0093828943258683611 0.0016293670117322888 -0.00072410846903800353 -0.0022003301957345292 -0.0054197255974369396 -0.0013395359589434093 -0.012037496020363098 0.0060610149802111362 0.0011050223081968268
leaf_weight=32387 204 4276 581 416 46 31 306 332 28 80 23 40 98 1737 30 20 159826 3056 3206 21 1217 35 21 171 37 35 68 29 24 182
leaf_count=32387 204 4276 581 416 46 31 306 332 28 80 23 40 98 1737 30 20 159826 3056 3206 21 1217 35 21 171 37 35 68 29 24 182
internal_value=9.74741e-08 0.000399866 0.00100904 0.000131555 -0.000994728 0.000263387 0.00177064 0.000157322 0.00130513 -0.00154146 -0.00418355 0.000805018 -0.000110504 0.00136286 3.44751e-05 0.003236 -1.6363e-05 8.41733e-05 2.90269e-05 -0.000405541 -0.00119152 -0.00482502 -0.000893145 -0.00242251 -0.00480306 -0.0061405 -0.0030326 -0.0084184 9.35593e-05 0.00168242
internal_weight=208563 8248 2522 5726 600 5126 337 4789 463 131 51 184 144 1941 4326 50 200315 40489 37433 4840 1634 124 1510 293 122 101 89 64 32593 206
internal_count=208563 8248 2522 5726 600 5126 337 4789 463 131 51 184 144 1941 4326 50 200315 40489 37433 4840 1634 124 1510 293 122 101 89 64 32593 206
is_linear=0
shrinkage=0.05


Tree=32
num_leaves=31
num_cat=0
split_feature=9 16 22 2 12 28 19 3 15 22 1 29 11 24 1 28 17 16 2 0 29 12 21 16 7 22 1 21 8 5
split_gain=0.495446 0.486673 0.306921 0.310317 0.299454 0.358199 0.284847 0.277779 0.202661 0.210556 0.199829 0.203259 0.197986 0.197909 0.197032 0.547808 0.304973 0.365157 0.291642 0.282445 0.251073 0.21408 0.189651 0.203253 0.684591 0.185457 0.180256 0.553793 0.400612 0.589205
threshold=0.046309168071776118 0.90476011994003003 0.6569759421380087 2.8126748889638282 0.73594242015294664 0.21145469413175697 0.93777654867256655 30.399784746899147 0.086581709145427302 2.9510343945629027 -0.36072281538791467 4.1298719031797839 0.017316341829085462 -0.071988052386156048 0.45973081760014339 4.1891202554645419 0.98283230179781911 0.99572649572649585 0.32475381260770436 0.17118669712942694 2.2517958746586424 0.23145604395604399 2.8474955337519767 0.84279176201373007 0.037999984125418169 0.54275842550995645 -0.056876825400425261 -0.021511782317571424 0.21209079815917611 1.128460354982405
decision_type=2 2 2 2 2 2 2 2 2 2 2 2 2 2 2 2 2 2 2 2 2 2 2 2 2 2 2 2 2 2
left_child=10 6 4 -4 14 -6 7 25 -5 -10 -1 22 -13 -7 -3 16 17 20 19 -17 -16 -18 26 24 -24 -2 27 28 -12 -30
right_child=1 2 3 8 5 13 -8 -9 9 -11 11 12 -14 -15 15 18 21 -19 -20 -21 -22 -23 23 -25 -26 -27 -28 -29 29 -31
leaf_value=0.0015801841980832326 0.0030491946797596178 2.2298411156146034e-05 -0.001701230824605423 0.0041293061968948079 0.0061644227369814309 -0.00078448145262276139 0.006757557467513141 0.00072506706586812045 0.00083723045958442738 -0.0040460289938858262 8.2044253390276185e-05 0.001775716322267221 -0.0018093931321209481 0.0016533892565894896 -0.0018649264751449944 -0.0005235852397163399 0.0046087736460881743 0.008731991602388885 0.00025557584301818029 -0.0083199052854279927 0.0035507039880752372 -0.00040322852376186227 0.00098691926619537385 0.00019845817220084301 0.010240726375819319 -0.0002441175978296911 -4.3917036456501405e-05 0.00072167948258258037 -3.7278966606838039e-05 -0.0012804052437733
leaf_weight=196 221 4208 416 36 37 111 21 2227 121 27 32688 45 267 333 26 21 26 29 70 26 121 118 414 1421 21 53 157757 3056 3067 1383
leaf_count=196 221 4208 416 36 37 111 21 2227 121 27 32688 45 267 333 26 21 26 29 70 26 121 118 414 1421 21 53 157757 3056 3067 1383
