tree
version=v4
num_class=1
num_tree_per_iteration=1
label_index=0
max_feature_idx=29
objective=regression
feature_names=MOMO_20 MOMO_60 MOM_RATIO RSI_14 BB_POS VOL_MA_RATIO ATR_20_NORM VOLATILITY_20 BB_WIDTH HIGH_LOW_RATIO MOMO_20_rank MOMO_60_rank MOM_RATIO_rank RSI_14_rank BB_POS_rank VOL_MA_RATIO_rank ATR_20_NORM_rank VOLATILITY_20_rank BB_WIDTH_rank HIGH_LOW_RATIO_rank MOMO_20_zscore MOMO_60_zscore MOM_RATIO_zscore RSI_14_zscore BB_POS_zscore VOL_MA_RATIO_zscore ATR_20_NORM_zscore VOLATILITY_20_zscore BB_WIDTH_zscore HIGH_LOW_RATIO_zscore
feature_infos=[-0.71242205723094232:1.0436296500369497] [-0.71853057155343925:1.5892254708189437] [-5:5] [0:100] [-0.10000000000000001:1.1000000000000001] [0:6.4816631331356911] [0.0035859556368551429:0.24462163030063636] [0.0020098594072021593:0.13991693337674346] [0.0078552289264488036:1] [0.0033699139486331399:0.19628986671726698] [0.0085470085470085479:1] [0.0085470085470085479:1] [0.0085470085470085479:1] [0.0085470085470085479:1] [0.0085470085470085479:1] [0.0085470085470085479:1] [0.0085470085470085479:1] [0.0085470085470085479:1] [0.0085470085470085479:1] [0.0085470085470085479:1] [-5:5] [-5:5] [-5:5] [-4.9676719708160366:4.4964985561195832] [-4.9964238140372155:5] [-4.0458282279057007:5] [-2.0537718223259787:5] [-2.0382300039019543:5] [-1.8401344618646962:5] [-2.0420346843376458:5]
tree_sizes=2934 2970

Tree=0
num_leaves=31
num_cat=0
split_feature=6 27 6 3 4 1 10 23 10 8 7 16 6 2 20 7 27 8 18 12 7 27 6 2 26 12 7 25 28 6
split_gain=8.40088 2.10901 1.5681 1.33697 1.02134 0.695967 0.659536 0.655441 0.646307 1.1069 0.809984 0.572312 0.556722 0.609806 0.916048 1.38352 0.833043 0.598747 2.37242 0.67122 0.622662 0.543285 0.519959 0.481297 0.452726 0.600154 0.546702 0.427971 0.391396 0.381805
threshold=0.076212869724223711 2.5842438364786182 0.039883657927593803 27.219851061262599 0.40793015315149966 0.069002251651588145 0.99111093552465246 -0.21791764156991875 0.071112515802781301 0.28102265089291273 0.036692380420468997 0.23912714620679226 0.022881969999964381 -0.58247827842212929 0.44608926630532469 0.02229668875684351 -0.26868903987459869 0.20534085814078548 0.70743057674702481 0.65501983521513585 0.018848646958542149 0.33640841266626809 0.060753216842469281 -1.1058694279445207 4.7707217850653318 0.27752329192546593 0.059262032126933789 0.12397208530063823 1.4505993420128249 0.084851280236411128
decision_type=2 2 2 2 2 2 2 2 2 2 2 2 2 2 2 2 2 2 2 2 2 2 2 2 2 2 2 2 2 2
left_child=2 4 12 7 29 6 24 8 -4 -10 28 22 -1 14 17 -16 -17 -14 20 -20 -19 -12 -5 -13 26 -26 27 -3 -11 -2
right_child=1 5 3 11 -6 -7 -8 -9 9 10 21 23 13 -15 15 16 -18 18 19 -21 -22 -23 -24 -25 25 -27 -28 -29 -30 -31
leaf_value=0.0061804876366836816 0.010127356045393726 0.0071417047334777113 0.005786801042632489 0.0071595668820481082 0.0091076551994363313 0.0033345098357864221 0.016172265037442245 0.01021569353231979 0.0060726956931530119 -0.00080215164316763555 0.0089142321344799144 0.0059597609825982308 0.0063339367796808417 0.0065083820652243893 0.0061139167427114362 -0.0035553666976996879 0.0042177503766569263 0.0064194006909725071 0.0059084425142875742 -0.0020248440745916771 -0.0032962020430575079 0.00079926060530960668 0.010245823051017467 0.0070716899135898495 0.0058861249804905633 0.014669389096576287 0.0044658987940198805 0.01553624133931103 -0.0080769775161103063 0.012503099379016832
leaf_weight=103178 245 49 764 291 664 118 22 63 170 64 33 1097 10389 32044 217 81 60 20 2132 27 94 55 257 8623 37 41 159 22 26 546
leaf_count=103178 245 49 764 291 664 118 22 63 170 64 33 1097 10389 32044 217 81 60 20 2132 27 94 55 257 8623 37 41 159 22 26 546
internal_value=0.00632741 0.00962989 0.00628806 0.00685201 0.0105535 0.00663016 0.00780861 0.00525434 0.00497326 0.00318721 0.000431404 0.00703483 0.00624452 0.00639114 0.00610259 0.00360838 -0.000247657 0.00617311 0.00543804 0.00580923 -0.00159171 0.00384237 0.00860695 0.0069462 0.0072112 0.010503 0.00609486 0.00974283 -0.00290377 0.0117672
internal_weight=161588 1903 159685 11443 1455 448 330 1175 1112 348 178 10268 148242 45064 13020 358 141 12662 2273 2159 114 88 548 9720 308 78 230 71 90 791
internal_count=161588 1903 159685 11443 1455 448 330 1175 1112 348 178 10268 148242 45064 13020 358 141 12662 2273 2159 114 88 548 9720 308 78 230 71 90 791
is_linear=0
shrinkage=1


Tree=1
num_leaves=31
num_cat=0
split_feature=9 29 9 0 21 3 12 18 29 23 22 14 14 8 14 9 8 18 3 28 8 5 18 10 8 9 25 28 21 26
split_gain=7.20943 2.52728 1.28621 0.882023 0.817096 0.751825 0.719167 0.926192 0.529692 0.515046 0.645231 0.795399 0.473637 0.888378 0.449398 0.438075 0.637463 1.04596 1.448 0.426109 0.79765 0.41913 0.645674 0.435961 0.565503 0.416876 0.39027 0.380603 0.509581 0.471948
threshold=0.061741361206255278 2.6682677095199359 0.036589087686835504 -0.12156966067709034 -2.9293531367513097 26.11637216069683 0.40947603121516168 0.99118925632665744 -0.99709470980332948 -0.21791764156991875 0.33468709063804103 0.41486115349404945 0.57640372291730257 0.47734961817560534 0.73363594751296934 0.02312953329254349 0.21260745964557204 0.69869545315837667 46.756192754029037 -1.0647191873207527 0.1035987840353499 1.5126061029035009 0.87982611258473342 0.37118553555080874 0.26540179276567966 0.073707730622046816 -1.2843099506086451 3.2853796839151523 3.4903060351726358 0.71833627862155369
decision_type=2 2 2 2 2 2 2 2 2 2 2 2 2 2 2 2 2 2 2 2 2 2 2 2 2 2 2 2 2 2
left_child=2 3 15 25 6 9 -3 -8 -7 10 -4 -12 -6 26 -15 -1 19 18 -18 20 -17 -19 23 24 -23 -2 -14 28 -10 -30
right_child=1 4 5 -5 12 8 7 -9 27 -11 11 -13 13 14 -16 16 17 21 -20 -21 -22 22 -24 -25 -26 -27 -28 -29 29 -31
leaf_value=-0.00012681889926838738 0.0034150805144570178 -0.00025632496581238232 -0.0006023225318876964 0.0023863164503644969 0.00033278872837583852 0.0030100600058291672 0.00061192875611595812 0.011307525602993945 0.00059730291492467668 0.0040128849493567924 -0.0076135457446496304 0.00075385736818942765 -0.010901409284605717 -0.0030853364354697988 0.0062586333414900207 -0.00026020477279483641 -0.007495889906806311 -9.1223083126491331e-05 -0.0002543935099025052 0.00019141611895075633 -0.0056246141105199638 -0.0040240735590538262 -0.00056472556778756845 -0.00062409549855681906 -0.012643084160159702 0.0055021910101467966 -0.0037675891894438903 -0.00036454294170587992 0.009090891792904586 0.0019915289839129557
leaf_weight=114638 392 64 739 709 514 229 35 48 7697 51 77 45 26 22 31 313 122 4349 159 28593 89 71 455 51 26 614 73 963 25 368
leaf_count=114638 392 64 739 709 514 229 35 48 7697 51 77 45 26 22 31 313 122 4349 159 28593 89 71 455 51 26 614 73 963 25 368
internal_value=-6.40552e-07 0.00264852 -4.27446e-05 0.003737 0.000352395 0.000500595 0.00372635 0.00679733 0.000635191 -0.000869275 -0.00115846 -0.00452721 -0.000392308 -0.00284428 0.00238 -7.99513e-05 7.702e-05 -0.000430897 -0.00339839 0.000168689 -0.00144785 -0.000262508 -0.00149786 -0.00436661 -0.00633432 0.00468892 -0.00564112 0.000575118 0.000686971 0.00244314
internal_weight=161588 2528 159060 1715 813 10194 147 83 9282 912 861 122 666 152 53 148866 34228 5233 281 28995 402 4952 603 148 97 1006 99 9053 8090 393
internal_count=161588 2528 159060 1715 813 10194 147 83 9282 912 861 122 666 152 53 148866 34228 5233 281 28995 402 4952 603 148 97 1006 99 9053 8090 393
is_linear=0
shrinkage=0.05


end of trees

feature_importances:
BB_WIDTH=6
ATR_20_NORM=5
VOLATILITY_20=4
HIGH_LOW_RATIO=4
BB_WIDTH_rank=4
RSI_14=3
MOMO_20_rank=3
MOM_RATIO_rank=3
BB_POS_rank=3
VOLATILITY_20_zscore=3
BB_WIDTH_zscore=3
MOM_RATIO=2
MOMO_60_zscore=2
RSI_14_zscore=2
VOL_MA_RATIO_zscore=2
ATR_20_NORM_zscore=2
HIGH_LOW_RATIO_zscore=2
MOMO_20=1
MOMO_60=1
BB_POS=1
VOL_MA_RATIO=1
ATR_20_NORM_rank=1
MOMO_20_zscore=1
MOM_RATIO_zscore=1

parameters:
[boosting: gbdt]
[objective: regression]
[metric: rmse,l1]
[tree_learner: serial]
[device_type: cpu]
[data_sample_strategy: bagging]
[data: ]
[valid: ]
[num_iterations: 3000]
[learning_rate: 0.05]
[num_leaves: 31]
[num_threads: 0]
[seed: 42]
[deterministic: 0]
[force_col_wise: 0]
[force_row_wise: 1]
[histogram_pool_size: -1]
[max_depth: -1]
[min_data_in_leaf: 20]
[min_sum_hessian_in_leaf: 0.001]
[bagging_fraction: 0.8]
[pos_bagging_fraction: 1]
[neg_bagging_fraction: 1]
[bagging_freq: 5]
[bagging_seed: 400]
[bagging_by_query: 0]
[feature_fraction: 0.8]
[feature_fraction_bynode: 1]
[feature_fraction_seed: 30056]
[extra_trees: 0]
[extra_seed: 12879]
[early_stopping_round: 0]
[early_stopping_min_delta: 0]
[first_metric_only: 0]
[max_delta_step: 0]
[lambda_l1: 0]
[lambda_l2: 0]
[linear_lambda: 0]
[min_gain_to_split: 0]
[drop_rate: 0.1]
[max_drop: 50]
[skip_drop: 0.5]
[xgboost_dart_mode: 0]
[uniform_drop: 0]
[drop_seed: 17869]
[top_rate: 0.2]
[other_rate: 0.1]
[min_data_per_group: 100]
[max_cat_threshold: 32]
[cat_l2: 10]
[cat_smooth: 10]
[max_cat_to_onehot: 4]
[top_k: 20]
[monotone_constraints: ]
[monotone_constraints_method: basic]
[monotone_penalty: 0]
[feature_contri: ]
[forcedsplits_filename: ]
[refit_decay_rate: 0.9]
[cegb_tradeoff: 1]
[cegb_penalty_split: 0]
[cegb_penalty_feature_lazy: ]
[cegb_penalty_feature_coupled: ]
[path_smooth: 0]
[interaction_constraints: ]
[verbosity: -1]
[saved_feature_importance_type: 0]
[use_quantized_grad: 0]
[num_grad_quant_bins: 4]
[quant_train_renew_leaf: 0]
[stochastic_rounding: 1]
[linear_tree: 0]
[max_bin: 255]
[max_bin_by_feature: ]
[min_data_in_bin: 3]
[bin_construct_sample_cnt: 200000]
[data_random_seed: 175]
[is_enable_sparse: 1]
[enable_bundle: 1]
[use_missing: 1]
[zero_as_missing: 0]
[feature_pre_filter: 1]
[pre_partition: 0]
[two_round: 0]
[header: 0]
[label_column: ]
[weight_column: ]
[group_column: ]
[ignore_column: ]
[categorical_feature: ]
[forcedbins_filename: ]
[precise_float_parser: 0]
[parser_config_file: ]
[objective_seed: 16083]
[num_class: 1]
[is_unbalance: 0]
[scale_pos_weight: 1]
[sigmoid: 1]
[boost_from_average: 1]
[reg_sqrt: 0]
[alpha: 0.9]
[fair_c: 1]
[poisson_max_delta_step: 0.7]
[tweedie_variance_power: 1.5]
[lambdarank_truncation_level: 30]
[lambdarank_norm: 1]
[label_gain: ]
[lambdarank_position_bias_regularization: 0]
[eval_at: ]
[multi_error_top_k: 1]
[auc_mu_weights: ]
[num_machines: 1]
[local_listen_port: 12400]
[time_out: 120]
[machine_list_filename: ]
[machines: ]
[gpu_platform_id: -1]
[gpu_device_id: -1]
[gpu_use_dp: 0]
[num_gpu: 1]

end of parameters

pandas_categorical:null
