tree
version=v4
num_class=1
num_tree_per_iteration=1
label_index=0
max_feature_idx=29
objective=regression
feature_names=MOMO_20 MOMO_60 MOM_RATIO RSI_14 BB_POS VOL_MA_RATIO ATR_20_NORM VOLATILITY_20 BB_WIDTH HIGH_LOW_RATIO MOMO_20_rank MOMO_60_rank MOM_RATIO_rank RSI_14_rank BB_POS_rank VOL_MA_RATIO_rank ATR_20_NORM_rank VOLATILITY_20_rank BB_WIDTH_rank HIGH_LOW_RATIO_rank MOMO_20_zscore MOMO_60_zscore MOM_RATIO_zscore RSI_14_zscore BB_POS_zscore VOL_MA_RATIO_zscore ATR_20_NORM_zscore VOLATILITY_20_zscore BB_WIDTH_zscore HIGH_LOW_RATIO_zscore
feature_infos=[-0.60626538538206898:1.063036441806831] [-0.54944322028675974:1.8132693889338629] [-5:5] [1.3400319488817871:100] [-0.10000000000000001:1.1000000000000001] [0.16697814090947458:7.6567012328827717] [0.0050937525546920874:0.193393224566621] [0.0028724657468172151:0.10756644698275965] [0.011917918423184534:0.97731047496953005] [0.0043811799198863197:0.15474364530855439] [0.035714285714285712:1] [0.035714285714285712:1] [0.035714285714285712:1] [0.035714285714285712:1] [0.035714285714285712:1] [0.035714285714285712:1] [0.035714285714285712:1] [0.035714285714285712:1] [0.035714285714285712:1] [0.035714285714285712:1] [-4.0931187461179945:4.8942392414151135] [-3.562737438241657:4.851143465564947] [-4.8432448440551026:4.9098667596880903] [-3.8048616774289412:4.1622522223897063] [-4.1605288769095496:4.8759934649445658] [-2.8883489551229031:4.988047354698689] [-2.8021304255774417:4.3779352481191323] [-2.9214665163732123:4.7862161926281717] [-2.5959109187210463:4.9531660099466883] [-2.9825861325560346:4.3258635377242634]
tree_sizes=2833 2948

Tree=0
num_leaves=31
num_cat=0
split_feature=6 1 6 16 6 0 11 26 11 18 6 20 18 16 2 1 7 1 3 28 11 12 1 20 2 14 8 1 28 26
split_gain=6.39848 1.95662 2.0796 1.84937 1.4046 1.21905 1.69381 0.97983 0.518239 0.535211 0.982667 0.492785 0.840231 0.457383 0.390798 0.37909 0.357639 0.446069 0.608309 0.437445 0.417729 0.480637 0.825996 0.384225 0.38181 0.389377 0.3572 0.346101 0.332985 0.328901
threshold=0.049345162627272954 0.73943875979496976 0.038634530476344832 0.94642857142857151 0.022545716678777517 -0.2707437607181899 0.44642857142857145 0.78115848250617381 0.98214285714285732 0.7678571428571429 0.039566338343685219 0.28552832297165104 0.7678571428571429 0.98214285714285732 1.5101499856812741 0.26245670522356074 0.044608551226989132 -0.18593431114012351 58.172993902269901 0.041029941935368137 0.12500000000000003 0.73214285714285732 0.73943875979496976 -1.4687850063440318 -0.46143620470937735 0.15178571428571433 0.46760022815239943 -0.044920168908571194 2.3519244534742394 -0.62151482426028981
decision_type=2 2 2 2 2 2 2 2 2 2 2 2 2 2 2 2 2 2 2 2 2 2 2 2 2 2 2 2 2 2
left_child=1 4 -3 -4 15 6 -2 -7 9 10 -6 12 -10 27 -11 29 17 19 -19 -9 23 28 -23 -18 -21 -26 -13 -12 -22 -1
right_child=5 2 3 -5 8 7 -8 16 11 14 13 26 -14 -15 -16 -17 20 18 -20 24 21 22 -24 -25 25 -27 -28 -29 -30 -31
leaf_value=0.018899122005221106 0.025001017431349755 0.040400519994539849 0.034227802708520015 0.015066539927051188 0.019895370368383986 0.024575246765010113 0.040830602512469907 0.030953723547755198 0.019629899831477164 0.019174990875699249 0.023093056249116069 0.020255645137356473 0.027318018208831139 0.028616311181491078 0.020507293141469343 0.020678346786161251 0.013944649924997629 0.020263207979188989 0.026569645006196286 0.025438395464586011 0.02085445047087554 0.021866770113772457 0.010807344016394035 0.019844386325327649 0.017246006133406835 0.023217374300942561 0.02635928175669016 0.020217733726150339 0.025347506474490057 0.01930590627809502
leaf_weight=8487 109 22 20 34 5533 364 20 20 66 3932 254 582 77 27 640 407 40 292 44 109 84 52 25 89 39 91 25 178 81 11988
leaf_count=8487 109 22 20 34 5533 364 20 20 66 3932 254 582 77 27 640 407 40 292 44 109 84 52 25 89 39 91 25 178 81 11988
internal_value=0.0195758 0.0194293 0.0274425 0.0221633 0.0194104 0.0228145 0.0274552 0.0223644 0.0198591 0.0197689 0.0200798 0.0211291 0.0237697 0.0223029 0.0193615 0.0191673 0.0215313 0.022291 0.0210891 0.0238503 0.020313 0.0215379 0.018276 0.018015 0.0232559 0.021426 0.020507 0.0219083 0.0230601 0.0191373
internal_weight=33731 32272 76 54 32196 1459 129 1330 11314 10564 5992 750 143 459 4572 20882 966 595 336 259 371 242 77 129 239 130 607 432 165 20475
internal_count=33731 32272 76 54 32196 1459 129 1330 11314 10564 5992 750 143 459 4572 20882 966 595 336 259 371 242 77 129 239 130 607 432 165 20475
is_linear=0
shrinkage=1


Tree=1
num_leaves=31
num_cat=0
split_feature=9 21 9 22 9 17 21 8 7 9 0 23 21 11 10 0 27 7 18 29 19 9 26 22 18 3 19 0 7 29
split_gain=5.51685 2.68102 1.12786 1.18268 1.08762 0.902812 0.636025 0.512402 0.980004 0.579608 0.616347 0.46183 0.451526 0.937661 0.56732 0.441499 0.413726 0.660551 0.446423 0.413211 0.396043 0.718115 0.507481 0.67972 0.622952 0.384109 0.432688 0.380158 0.337524 0.353879
threshold=0.046701255140609847 2.7974559227566069 0.078805043947554762 -0.71596967702266323 0.020312439538144562 0.8392857142857143 -2.2436560732866426 0.30061155434708658 0.025520288887757179 0.024931374351103732 0.059659469988991971 -0.42411889371247885 1.0058700042462527 0.94642857142857151 0.94642857142857151 -0.11294459930250271 1.0764293631510642 0.023574551935536484 0.62500000000000011 0.82592643317507142 0.80357142857142871 0.035778330308516827 1.5570033035803632 -0.71596967702266323 0.44642857142857145 69.879659521562658 0.98214285714285732 -0.14714131693373297 0.030242943785777115 2.7951569185164504
decision_type=2 2 2 2 2 2 2 2 2 2 2 2 2 2 2 2 2 2 2 2 2 2 2 2 2 2 2 2 2 2
left_child=1 4 5 -4 -1 15 16 9 -9 10 -3 -5 13 20 19 -2 18 -18 -6 -14 21 27 23 -22 -24 -10 -27 -8 -19 -30
right_child=2 7 3 11 6 -7 12 8 25 -11 -12 -13 14 -15 -16 -17 17 28 -20 -21 22 -23 24 -25 -26 26 -28 -29 29 -31
leaf_value=-0.00039111501750367487 0.0062529280144902489 0.012558204803615809 0.018563614927587055 0.0089607695436657031 0.001964738806487904 0.001593530133867053 -0.0030244958557715806 0.016562725915573537 0.0100250547809992 0.0012228926204636437 0.0036027975627277269 0.0025352338720353897 0.00063141205297208682 -0.0080404616559722596 -0.00033183037192395797 0.0030535419543799517 0.0041985905244946477 -0.0058278920813178529 -0.0061576883726078896 0.002375708146960611 0.00096515776463254469 0.0027470604535066536 0.008439190332622578 -0.0011544424498063212 0.00032458442020040761 0.00026139365573827592 0.0081122820274546186 0.00034717379638616073 0.0021272806695196776 -0.0058661380101693791
leaf_weight=20404 203 25 21 54 21 636 85 20 24 226 83 58 662 35 589 230 50 49 87 697 479 316 24 1798 1629 54 26 5081 45 20
leaf_count=20404 203 25 21 54 21 636 85 20 24 226 83 58 662 35 589 230 50 49 87 697 479 316 24 1798 1629 54 26 5081 45 20
internal_value=6.22703e-06 -0.000116692 0.0033327 0.00767489 -0.000170937 0.00279246 0.000214125 0.00368177 0.00642654 0.00266276 0.00567581 0.00563326 0.000271162 0.000128239 0.000964279 0.00455349 -0.00217534 -0.00059288 -0.00457833 0.00152602 0.000158616 0.000433232 -0.00022445 -0.000708554 0.000442401 0.00447727 0.00281293 0.000291697 -0.0026944 -0.000332233
internal_weight=33731 32529 1202 133 32071 1069 11667 458 124 334 108 112 11395 9447 1948 433 272 164 108 1359 9412 5482 3930 2277 1653 104 80 5166 114 65
internal_count=33731 32529 1202 133 32071 1069 11667 458 124 334 108 112 11395 9447 1948 433 272 164 108 1359 9412 5482 3930 2277 1653 104 80 5166 114 65
is_linear=0
shrinkage=0.05


end of trees

feature_importances:
MOMO_60=5
HIGH_LOW_RATIO=5
MOMO_20=4
ATR_20_NORM=4
VOLATILITY_20=4
MOMO_60_rank=4
BB_WIDTH_rank=4
MOMO_60_zscore=3
ATR_20_NORM_zscore=3
MOM_RATIO=2
RSI_14=2
BB_WIDTH=2
ATR_20_NORM_rank=2
HIGH_LOW_RATIO_rank=2
MOMO_20_zscore=2
MOM_RATIO_zscore=2
BB_WIDTH_zscore=2
HIGH_LOW_RATIO_zscore=2
MOMO_20_rank=1
MOM_RATIO_rank=1
BB_POS_rank=1
VOLATILITY_20_rank=1
RSI_14_zscore=1
VOLATILITY_20_zscore=1

parameters:
[boosting: gbdt]
[objective: regression]
[metric: rmse,l1]
[tree_learner: serial]
[device_type: cpu]
[data_sample_strategy: bagging]
[data: ]
[valid: ]
[num_iterations: 3000]
[learning_rate: 0.05]
[num_leaves: 31]
[num_threads: 0]
[seed: 42]
[deterministic: 0]
[force_col_wise: 0]
[force_row_wise: 1]
[histogram_pool_size: -1]
[max_depth: -1]
[min_data_in_leaf: 20]
[min_sum_hessian_in_leaf: 0.001]
[bagging_fraction: 0.8]
[pos_bagging_fraction: 1]
[neg_bagging_fraction: 1]
[bagging_freq: 5]
[bagging_seed: 400]
[bagging_by_query: 0]
[feature_fraction: 0.8]
[feature_fraction_bynode: 1]
[feature_fraction_seed: 30056]
[extra_trees: 0]
[extra_seed: 12879]
[early_stopping_round: 0]
[early_stopping_min_delta: 0]
[first_metric_only: 0]
[max_delta_step: 0]
[lambda_l1: 0]
[lambda_l2: 0]
[linear_lambda: 0]
[min_gain_to_split: 0]
[drop_rate: 0.1]
[max_drop: 50]
[skip_drop: 0.5]
[xgboost_dart_mode: 0]
[uniform_drop: 0]
[drop_seed: 17869]
[top_rate: 0.2]
[other_rate: 0.1]
[min_data_per_group: 100]
[max_cat_threshold: 32]
[cat_l2: 10]
[cat_smooth: 10]
[max_cat_to_onehot: 4]
[top_k: 20]
[monotone_constraints: ]
[monotone_constraints_method: basic]
[monotone_penalty: 0]
[feature_contri: ]
[forcedsplits_filename: ]
[refit_decay_rate: 0.9]
[cegb_tradeoff: 1]
[cegb_penalty_split: 0]
[cegb_penalty_feature_lazy: ]
[cegb_penalty_feature_coupled: ]
[path_smooth: 0]
[interaction_constraints: ]
[verbosity: -1]
[saved_feature_importance_type: 0]
[use_quantized_grad: 0]
[num_grad_quant_bins: 4]
[quant_train_renew_leaf: 0]
[stochastic_rounding: 1]
[linear_tree: 0]
[max_bin: 255]
[max_bin_by_feature: ]
[min_data_in_bin: 3]
[bin_construct_sample_cnt: 200000]
[data_random_seed: 175]
[is_enable_sparse: 1]
[enable_bundle: 1]
[use_missing: 1]
[zero_as_missing: 0]
[feature_pre_filter: 1]
[pre_partition: 0]
[two_round: 0]
[header: 0]
[label_column: ]
[weight_column: ]
[group_column: ]
[ignore_column: ]
[categorical_feature: ]
[forcedbins_filename: ]
[precise_float_parser: 0]
[parser_config_file: ]
[objective_seed: 16083]
[num_class: 1]
[is_unbalance: 0]
[scale_pos_weight: 1]
[sigmoid: 1]
[boost_from_average: 1]
[reg_sqrt: 0]
[alpha: 0.9]
[fair_c: 1]
[poisson_max_delta_step: 0.7]
[tweedie_variance_power: 1.5]
[lambdarank_truncation_level: 30]
[lambdarank_norm: 1]
[label_gain: ]
[lambdarank_position_bias_regularization: 0]
[eval_at: ]
[multi_error_top_k: 1]
[auc_mu_weights: ]
[num_machines: 1]
[local_listen_port: 12400]
[time_out: 120]
[machine_list_filename: ]
[machines: ]
[gpu_platform_id: -1]
[gpu_device_id: -1]
[gpu_use_dp: 0]
[num_gpu: 1]

end of parameters

pandas_categorical:null
