tree
version=v4
num_class=1
num_tree_per_iteration=1
label_index=0
max_feature_idx=29
objective=regression
feature_names=MOMO_20 MOMO_60 MOM_RATIO RSI_14 BB_POS VOL_MA_RATIO ATR_20_NORM VOLATILITY_20 BB_WIDTH HIGH_LOW_RATIO MOMO_20_rank MOMO_60_rank MOM_RATIO_rank RSI_14_rank BB_POS_rank VOL_MA_RATIO_rank ATR_20_NORM_rank VOLATILITY_20_rank BB_WIDTH_rank HIGH_LOW_RATIO_rank MOMO_20_zscore MOMO_60_zscore MOM_RATIO_zscore RSI_14_zscore BB_POS_zscore VOL_MA_RATIO_zscore ATR_20_NORM_zscore VOLATILITY_20_zscore BB_WIDTH_zscore HIGH_LOW_RATIO_zscore
feature_infos=[-0.60626538538206898:1.063036441806831] [-0.58868992092697048:1.8132693889338629] [-5:5] [1.3400319488817871:100] [-0.10000000000000001:1.1000000000000001] [0.16697814090947458:10] [0.0050937525546920874:0.193393224566621] [0.0028724657468172151:0.10756644698275965] [0.011917918423184534:1] [0.0043811799198863197:0.15474364530855439] [0.035714285714285712:1] [0.035714285714285712:1] [0.035714285714285712:1] [0.035714285714285712:1] [0.035714285714285712:1] [0.035714285714285712:1] [0.035714285714285712:1] [0.035714285714285712:1] [0.035714285714285712:1] [0.035714285714285712:1] [-4.3126201492294456:4.8942392414151135] [-3.562737438241657:4.851143465564947] [-4.8432448440551026:4.9098667596880903] [-3.8048616774289412:4.1622522223897063] [-4.2436512712529089:4.8759934649445658] [-2.8883489551229031:4.9909105289072242] [-2.8021304255774417:4.3779352481191323] [-2.9214665163732123:4.7862161926281717] [-2.5959109187210463:4.9531660099466883] [-2.9825861325560346:4.3258635377242634]
tree_sizes=2842 2922 2927 2923 2907 2951

Tree=0
num_leaves=31
num_cat=0
split_feature=6 11 6 0 12 18 1 16 6 25 7 27 26 0 17 8 10 27 11 19 28 11 1 6 1 2 4 1 11 27
split_gain=5.50189 2.07371 1.50033 1.46446 1.26364 1.16196 1.0734 1.21714 1.50241 0.8996 0.782678 0.699874 0.733466 0.734857 0.643174 0.682949 0.615915 0.541482 0.511073 0.511057 0.835077 0.523249 1.07824 0.476199 0.453002 0.709603 0.446924 0.443941 0.497411 0.439857
threshold=0.071307205860243125 0.98214285714285732 0.046690066852794761 -0.29043392066305529 0.23214285714285718 0.73214285714285732 0.68476917981800234 0.87500000000000011 0.033893604310242902 -1.3804651439250086 0.037774544130151168 3.58828732927542 1.8293158212471354 -0.086740443400627573 0.98214285714285732 0.43751620070832348 0.30357142857142866 2.8018467168572196 0.41071428571428575 0.98214285714285732 0.56730186929930737 0.053571428571428575 -0.22572387190247359 0.059731314280551305 0.27828856621754466 0.3167119054366726 0.7874580239082789 -0.045264613914704092 0.55357142857142871 2.2840199067978801
decision_type=2 2 2 2 2 2 2 2 2 2 2 2 2 2 2 2 2 2 2 2 2 2 2 2 2 2 2 2 2 2
left_child=1 2 19 4 -2 16 -3 -8 -9 -5 17 12 -12 29 -10 -16 -4 18 -7 21 -21 22 -1 -13 27 -26 -11 28 -23 -14
right_child=3 6 5 9 -6 10 7 8 14 26 11 23 13 -15 15 -17 -18 -19 -20 20 -22 24 -24 -25 25 -27 -28 -29 -30 -31
leaf_value=0.0094174468098817618 0.03424126347271577 0.016673074985715387 0.015887275156650452 0.0086912332837703402 0.02232332394509854 0.018264597045477442 0.032790707842377087 0.031342486779401817 0.011329072163370507 0.02010410615249747 0.016049783269571131 0.015976262488229379 0.0079139297479200489 0.014939255790803872 0.026176172266489273 0.014479643018058427 0.019688519655619414 0.010531075657896457 0.015067796214566396 0.01972162085875271 0.015560645408214765 0.015350055935330733 0.01457890170094121 0.026636388487112778 0.017107971732006021 0.01456593283520106 0.01409804739396177 0.015036118739146651 0.016892034814848283 0.01284913023297442
leaf_weight=114 30 1435 150 20 86 465 20 21 36 348 360 22 83 210 24 26 368 30 171 155 543 6739 900 20 709 448 34 30740 567 99
leaf_count=114 30 1435 150 20 86 465 20 21 36 348 360 22 83 210 24 26 368 30 171 155 543 6739 900 20 709 448 34 30740 567 99
internal_value=0.0153332 0.0152735 0.0152083 0.0204564 0.0254055 0.0165532 0.017063 0.0214689 0.0193527 0.0190283 0.0158314 0.0147711 0.0144203 0.0129239 0.0164249 0.020094 0.0185878 0.0170954 0.0174051 0.0151433 0.0164846 0.01512 0.0139986 0.0210525 0.015149 0.0161237 0.0195695 0.0151194 0.0154697 0.0105985
internal_weight=44973 44455 42893 518 116 1978 1562 127 107 402 1460 794 752 392 86 50 518 666 636 40915 698 40217 1014 42 39203 1157 382 38046 7306 182
internal_count=44973 44455 42893 518 116 1978 1562 127 107 402 1460 794 752 392 86 50 518 666 636 40915 698 40217 1014 42 39203 1157 382 38046 7306 182
is_linear=0
shrinkage=1


Tree=1
num_leaves=31
num_cat=0
split_feature=9 21 9 18 0 22 21 7 26 12 10 21 17 7 7 8 29 0 29 21 27 26 16 29 3 10 0 5 8 19
split_gain=4.36359 2.62779 1.61116 1.81304 1.433 1.57613 0.893799 0.748583 1.02216 0.871023 0.725376 0.663157 0.654286 0.628837 1.3667 0.498537 1.9213 0.647892 0.533342 0.46595 0.567361 0.815662 0.729616 0.507495 0.480653 0.459273 0.455874 0.450374 0.446546 0.439943
threshold=0.068861721364068568 2.7220740661726652 0.045657230759031601 0.66071428571428592 -0.29043392066305529 -0.29926648539172301 1.4469044755697704 0.037126453564903523 3.4737069916540046 0.5178571428571429 0.19642857142857145 -1.1865504665530404 0.94642857142857151 0.040299242284202987 0.037774544130151168 0.35340929337025445 1.9830297599814484 0.040565216658247534 2.2626332157942324 -1.9693682105728614 1.2301095711608532 2.6472504328126658 0.80357142857142871 2.3320950332557095 56.431948720392207 0.69642857142857151 -0.075387910326591909 0.99353799848002067 0.13373079353165027 0.98214285714285732
decision_type=2 2 2 2 2 2 2 2 2 2 2 2 2 2 2 2 2 2 2 2 2 2 2 2 2 2 2 2 2 2
left_child=1 2 6 10 5 -2 19 -5 9 12 -4 -10 -9 14 15 17 -17 18 -3 20 22 23 -1 24 -22 -8 -25 -7 -12 -21
right_child=4 13 3 7 -6 27 25 8 11 -11 28 -13 -14 -15 -16 16 -18 -19 -20 29 21 -23 -24 26 -26 -27 -28 -29 -30 -31
leaf_value=0.00013085672826409708 0.023029821550118783 0.0081457457708520222 -0.0016467939184910459 0.0023181795295511868 0.0036880058612907309 0.0018593195311647531 0.002061225674157491 0.00015303783972979155 0.013271308390955841 0.0012885870527340254 -0.00028145729654258296 0.0019052888513683823 -0.0037452012001206944 8.6183374409018096e-05 0.014207916874438526 0.00098389404899391691 0.020129774939268829 0.0016401167526128538 -0.00066909125836735423 -0.00019250792606103351 -0.0012751421519215773 -0.004334370301475223 -0.0049615879720325516 0.0095568286174966492 0.0071072770934551962 0.00041075544549667759 0.0012998537958732674 0.010308626631234328 0.0060353114793339959 0.0011923868716515393
leaf_weight=111 21 78 41 405 250 24 577 179 21 300 31 33 270 141 30 38 20 348 22 39079 118 78 192 32 20 1564 35 46 287 582
leaf_count=111 21 78 41 405 250 24 577 179 21 300 31 33 270 141 30 38 20 348 22 39079 118 78 192 32 20 1564 35 46 287 582
internal_value=8.95722e-06 -3.40925e-05 -8.17062e-05 0.00149272 0.00564354 0.0110159 -0.00013991 0.000565563 -0.000318384 -0.000797376 0.00461251 0.00632541 -0.00219111 0.00305728 0.00383886 0.0032241 0.00758592 0.00265939 0.00620648 -0.000192865 -0.00159247 1.73544e-05 -0.00309604 0.00167313 -6.02988e-05 0.000855558 0.00524348 0.00741172 0.00541953 -0.000172185
internal_weight=44973 44632 43955 1567 341 91 42388 1208 803 749 359 54 449 677 536 506 58 448 100 40247 586 283 303 205 138 2141 67 70 318 39661
internal_count=44973 44632 43955 1567 341 91 42388 1208 803 749 359 54 449 677 536 506 58 448 100 40247 586 283 303 205 138 2141 67 70 318 39661
is_linear=0
shrinkage=0.05


Tree=2
num_leaves=31
num_cat=0
split_feature=9 21 0 12 26 9 17 21 27 25 29 13 12 19 8 23 10 21 1 21 27 26 16 29 20 4 29 1 8 20
split_gain=3.94817 2.52382 1.44647 1.13915 0.82816 0.774 1.17397 0.806654 0.57934 0.528867 0.695348 0.678082 0.547443 0.423362 0.618957 0.523144 0.44355 0.42052 0.577462 0.550886 0.515212 0.707721 0.699409 0.468199 0.593534 0.409908 0.615774 0.426255 1.33889 1.18835
threshold=0.059202971501782019 2.7220740661726652 -0.29043392066305529 0.23214285714285718 0.74970868611580344 0.045657230759031601 0.94642857142857151 1.4469044755697704 3.58828732927542 -1.3804651439250086 3.4081615006175774 0.62500000000000011 0.66071428571428592 0.80357142857142871 0.10159916618926472 1.0355497587314528 0.94642857142857151 -1.9693682105728614 -0.056535309390757231 0.093119602577037483 1.1634458283929512 2.6472504328126658 0.80357142857142871 2.3320950332557095 -2.1637640280026877 0.5244231590427274 2.4065887027892479 0.68476917981800234 0.43751620070832348 2.2362396035484595
decision_type=2 2 2 2 2 2 2 2 2 2 2 2 2 2 2 2 2 2 2 2 2 2 2 2 2 2 2 2 2 2
left_child=1 5 3 -2 -4 7 -7 17 -8 -6 11 -11 -12 -9 15 -15 -16 20 19 -19 22 23 -1 -22 -25 26 -3 -27 29 -29
right_child=2 25 4 -5 9 6 8 13 -10 10 12 -13 -14 14 16 -17 -18 18 -20 -21 21 -23 -24 24 -26 27 -28 28 -30 -31
leaf_value=0.00012431392521672959 0.017201685975305737 0.0090997117315619741 0.0054053853535151576 0.0059028408488783256 -0.0065199147106613968 0.0025863165906174655 -0.00093518746718526777 0.00010208508088106134 0.0058939921422720412 -0.00039761543734832035 0.010657286660797481 0.0050463516634578513 0.00078198270032020381 0.0031045568689120101 0.001941652826276567 0.011005224716063822 -0.00030443428222404418 0.00012453177943018824 -0.00025284978715879548 0.0018602007968519171 -0.00017303590805954315 -0.0041176518174604734 -0.0049167964871542199 0.011382306251755875 0.0015799846856835041 0.0018593170206825677 -0.00042316074832342569 0.0012277623500267509 -0.0028154098674551481 0.013567023297771812
leaf_weight=111 30 58 192 87 20 654 527 1059 33 241 36 75 23 165 502 24 391 6633 32537 491 146 78 181 23 47 467 24 32 36 50
leaf_count=111 30 58 192 87 20 654 527 1059 33 241 36 75 23 165 502 24 391 6633 32537 491 146 78 181 23 47 467 24 32 36 50
internal_value=8.50936e-06 -5.0569e-05 0.00372348 0.00879998 0.00271164 -9.72628e-05 0.00114754 -0.000132914 -0.000532754 0.00140228 0.0018248 0.000894465 0.00680759 0.00081278 0.00150837 0.00410782 0.000958204 -0.000183222 -0.000163576 0.000244157 -0.00151285 -3.53325e-05 -0.00300048 0.00143884 0.00480075 0.00300182 0.00631253 0.00253775 0.00522275 0.0087517
internal_weight=44973 44269 704 117 587 43602 1214 42388 560 395 375 316 59 2141 1082 189 893 40247 39661 7124 586 294 292 216 70 667 82 585 118 82
internal_count=44973 44269 704 117 587 43602 1214 42388 560 395 375 316 59 2141 1082 189 893 40247 39661 7124 586 294 292 216 70 667 82 585 118 82
is_linear=0
shrinkage=0.05


Tree=3
num_leaves=31
num_cat=0
split_feature=6 1 6 18 0 11 1 13 8 20 3 24 25 5 9 23 1 29 16 9 0 10 24 29 29 9 28 28 24 1
split_gain=4.10814 1.52485 1.35829 1.21918 1.10052 0.97867 0.802537 0.94135 1.07444 1.01538 0.914157 0.756196 0.738451 0.619789 0.606392 0.797834 0.585897 0.570982 0.471789 0.471086 0.452767 0.445651 0.408766 0.357021 0.330672 0.772492 0.944606 0.391167 0.383456 0.379809
threshold=0.071307205860243125 0.26957023206288039 0.049824397743047207 0.66071428571428592 -0.29043392066305529 0.41071428571428575 0.68476917981800234 0.69642857142857151 0.43751620070832348 2.2362396035484595 45.97700880449537 0.97953227730297321 -1.3804651439250086 0.96535530133651137 0.051397226609633147 -0.41740747118043731 -0.16500786755990146 1.9263332790740744 0.98214285714285732 0.048321658807458222 0.060482356324655935 0.37500000000000006 -0.56171608137872775 1.6335243741226189 1.3555219157519189 0.037138770526372357 0.42948178428313338 -0.13692828643112503 1.6361356659544655 0.042368904054522656
decision_type=2 2 2 2 2 2 2 2 2 2 2 2 2 2 2 2 2 2 2 2 2 2 2 2 2 2 2 2 2 2
left_child=1 2 24 21 5 13 10 -8 9 -9 19 -11 -6 -2 -5 17 18 -16 -17 -3 -18 -4 -15 -23 29 28 27 -27 -26 -1
right_child=4 6 3 14 12 -7 7 8 -10 11 -12 -13 -14 22 15 16 20 -19 -20 -21 -22 23 -24 -25 25 26 -28 -29 -30 -31
leaf_value=-5.754557569024628e-05 0.00052265872544576895 0.0049089143314938015 0.0011395275381531705 0.0016480299963372157 -0.0061684701684862377 0.018787317704409362 -0.0046092504466121852 0.0031594063300872223 -0.00080141613040776824 0.019987672374204356 0.00062879189788890566 0.0073369197450422995 0.0036874533928059929 0.012684067434288168 0.00069629389457689711 0.0021792327359610474 -0.004233715623990132 -0.004019672300801763 0.009495394419257841 -0.0022671046093679392 0.0025571006650312081 0.0044410595614339616 0.0048017516836588239 0.0095100499922409661 0.00072222300317797668 0.0089577964679020544 -0.001863386112216126 0.0016130608530659726 0.0055461853055194729 -0.00037576087910280069
leaf_weight=19847 29 190 81 668 20 20 22 34 34 27 2095 21 382 38 98 83 54 186 30 26 45 165 29 44 2150 22 613 103 42 17775
leaf_count=19847 29 190 81 668 20 20 22 34 34 27 2095 21 382 38 98 83 54 186 30 26 45 165 29 44 2150 22 613 103 42 17775
internal_value=8.08388e-06 -4.35008e-05 -0.000114208 0.00138732 0.00443511 0.00872542 0.00116928 0.00487327 0.00667167 0.00977027 0.000948104 0.014453 0.00319711 0.00662919 0.000664647 -0.000659748 0.00166126 -0.00239233 0.00412158 0.00404513 -0.00114698 0.004288 0.00927232 0.00550822 -0.000168045 0.000343577 -0.00105561 0.00290573 0.000814653 -0.000207891
internal_weight=44973 44455 42006 1454 518 116 2449 138 116 82 2311 48 402 96 1164 496 212 284 113 216 99 290 67 209 40552 2930 738 125 2192 37622
internal_count=44973 44455 42006 1454 518 116 2449 138 116 82 2311 48 402 96 1164 496 212 284 113 216 99 290 67 209 40552 2930 738 125 2192 37622
is_linear=0
shrinkage=0.05


Tree=4
num_leaves=31
num_cat=0
split_feature=9 1 9 18 0 22 4 1 7 8 28 7 27 8 9 19 10 27 19 28 9 7 1 7 9 27 3 0 9 2
split_gain=3.2977 1.23552 1.40657 1.2418 1.08938 1.23484 0.676587 0.636317 1.47035 0.807849 0.989006 0.60989 0.704352 0.594059 0.486062 0.472136 0.470863 0.446881 0.425139 0.753876 0.507935 0.460108 0.7532 0.45999 0.445736 0.418402 0.409235 0.406411 0.395561 0.569828
threshold=0.068861721364068568 0.26957023206288039 0.044598978596432616 0.66071428571428592 -0.29043392066305529 -0.29926648539172301 0.4765021288356916 0.68476917981800234 0.040299242284202987 0.28831028242082973 3.0726665304108107 0.037774544130151168 3.58828732927542 0.13373079353165027 0.049745294149625169 0.91071428571428592 0.19642857142857145 2.8018467168572196 0.98214285714285732 0.51238924124797158 0.037664775153747214 0.019441251411844596 -0.018487098263853249 0.025225775136661938 0.029224161565812642 1.1634458283929512 75.482239553165741 -0.0088608663264148051 0.059202971501782019 -0.77217323885878619
decision_type=2 2 2 2 2 2 2 2 2 2 2 2 2 2 2 2 2 2 2 2 2 2 2 2 2 2 2 2 2 2
left_child=1 2 18 13 5 -2 14 -8 9 -9 -11 17 15 -4 -3 -13 -15 25 -1 -20 21 22 -21 -22 27 -5 -10 -23 -17 -30
right_child=4 6 3 11 -6 -7 7 8 26 10 -12 12 -14 16 -16 28 -18 -19 19 20 23 24 -24 -25 -26 -27 -28 -29 29 -31
leaf_value=-0.00017321848596674736 0.020224088195356586 0.003968556100297815 -0.0022666518246599785 0.00067303397784280225 0.0032009545435663315 0.0063999510814236223 0.00051970189487931184 0.0029575086619737451 -0.0081166747647027186 0.020147691582414237 0.0054708914763371775 0.001361498054211552 0.0062568358106593796 -0.00069103562870086773 -0.0022913294817720141 -0.0025583225771608742 0.0051425246255735 -0.0040626331736954551 0.0042032097199504884 -0.010078138817863708 -0.0089788357354700556 0.011836527194827796 0.0018655410177554146 -0.00099668271996936693 0.0012031120049984015 0.0035641585610206258 0.00098395431103805706 0.002854072633507552 -0.0034163816348586427 0.002779663386754692
leaf_weight=39805 21 272 36 234 250 70 2016 43 21 22 24 192 38 39 35 328 306 30 150 22 20 20 33 185 269 269 30 34 59 100
leaf_count=39805 21 272 36 234 250 70 2016 43 21 22 24 192 38 39 35 328 306 30 150 22 20 20 33 185 269 269 30 34 59 100
internal_value=7.6797e-06 -2.97446e-05 -9.33227e-05 0.00134633 0.00490599 0.00959014 0.00105877 0.000746063 0.00400566 0.00788453 0.0124902 0.000584646 -0.000367591 0.00384531 0.00325489 -0.000738325 0.00448308 0.00186561 -0.000151246 0.00104198 0.000228623 0.00131548 -0.00291193 -0.00177543 0.00203531 0.00221918 -0.00276336 0.00618091 -0.00156618 0.000480502
internal_weight=44973 44632 42169 1631 341 91 2463 2156 140 89 46 1250 717 381 307 679 345 533 40538 733 583 378 55 205 323 503 51 54 487 159
internal_count=44973 44632 42169 1631 341 91 2463 2156 140 89 46 1250 717 381 307 679 345 533 40538 733 583 378 55 205 323 503 51 54 487 159
is_linear=0
shrinkage=0.05


Tree=5
num_leaves=31
num_cat=0
split_feature=6 21 21 12 8 26 6 28 7 12 23 1 21 21 26 7 19 0 4 21 1 21 19 28 8 0 6 26 28 19
split_gain=4.05314 1.93293 0.967828 1.04002 0.984492 0.888262 0.851424 1.10503 1.13398 0.750343 0.715542 2.03003 0.659252 0.651236 0.658701 1.15839 0.605738 0.671705 0.467181 0.445079 0.441879 0.542017 0.53934 0.761036 0.493425 0.440669 0.434414 0.417975 0.404165 0.393353
threshold=0.071307205860243125 2.7220740661726652 -2.7742067998522972 0.098214285714285726 0.43751620070832348 1.694694563236925 0.049824397743047207 0.075915322770347557 0.039305462362568773 0.40178571428571436 0.11193390150929815 0.17129651942578386 1.3656511464194037 3.6838165837484476 2.3879910730992182 0.037126453564903523 0.80357142857142871 0.064318233243884318 0.068006547876378762 -1.9693682105728614 -0.04871251947423471 0.1091086504995737 0.98214285714285732 0.56730186929930737 0.28831028242082973 0.02781252767753473 0.034706432261907512 1.4066039806552968 1.4394263545879993 0.87500000000000011
decision_type=2 2 2 2 2 2 2 2 2 2 2 2 2 2 2 2 2 2 2 2 2 2 2 2 2 2 2 2 2 2
left_child=1 6 -2 4 -4 18 12 -8 -9 29 11 -7 19 -3 27 -16 26 -18 -5 -1 21 -21 24 25 -22 -24 -14 -15 -19 -10
right_child=2 13 3 5 -6 10 7 8 9 -11 -12 -13 16 14 15 -17 17 28 -20 20 22 -23 23 -25 -26 -27 -28 -29 -30 -31
leaf_value=-0.0015469692881727932 0.013773595184410134 0.0019008109842499239 0.0048331442562972796 0.010046544445580558 0.018227139406878017 -0.00053082125585021103 0.0039746134410706471 0.002037902332520733 0.0018003093171864749 0.00057897037217024541 -0.0054416321990330046 0.016012886259704828 0.00020675049132256917 0.0080599759030958711 0.018962996690110728 0.002737365855666047 0.0031065185361748744 0.001923624360872987 0.0040526731020977926 6.8535631923042085e-05 -0.00024110244201837883 0.0017013162977974512 0.0087984084184281521 0.00046803546740068993 -0.0023027083104231582 0.0014203620834878701 -0.0031903843616829346 0.0005681597939726019 -0.00047833614793342701 -0.0035243803180283178
leaf_weight=581 26 513 34 38 23 118 271 592 40 354 41 22 1216 29 22 22 420 314 225 7356 30754 546 50 322 293 34 102 52 396 261
leaf_count=581 26 513 34 38 23 118 271 592 40 354 41 22 1216 29 22 22 420 314 225 7356 30754 546 50 322 293 34 102 52 396 261
internal_value=8.59296e-06 -4.29853e-05 0.00436779 0.00387966 0.0102377 0.00306342 -8.26927e-05 0.00108081 0.000451919 -0.00098152 0.000367622 0.0020689 -0.000124364 0.00268935 0.00592553 0.0108502 0.00067211 0.00152154 0.00491871 -0.000173186 -0.000152905 0.000181355 -0.000236882 0.00157369 -0.000260558 0.00581206 -5.61537e-05 0.00325041 0.000583939 -0.00281678
internal_weight=45067 44540 527 501 57 444 43902 1518 1247 655 181 140 42384 638 125 44 2448 1130 263 39936 39355 7902 31453 406 31047 84 1318 81 710 301
internal_count=45067 44540 527 501 57 444 43902 1518 1247 655 181 140 42384 638 125 44 2448 1130 263 39936 39355 7902 31453 406 31047 84 1318 81 710 301
is_linear=0
shrinkage=0.05


end of trees

feature_importances:
MOMO_60=15
MOMO_60_zscore=14
HIGH_LOW_RATIO=13
MOMO_20=12
VOLATILITY_20=10
BB_WIDTH=10
ATR_20_NORM=9
VOLATILITY_20_zscore=9
HIGH_LOW_RATIO_zscore=9
HIGH_LOW_RATIO_rank=8
ATR_20_NORM_zscore=8
BB_WIDTH_zscore=8
MOMO_20_rank=6
MOM_RATIO_rank=6
MOMO_60_rank=5
BB_POS=4
ATR_20_NORM_rank=4
BB_WIDTH_rank=4
RSI_14=3
VOLATILITY_20_rank=3
MOMO_20_zscore=3
RSI_14_zscore=3
BB_POS_zscore=3
VOL_MA_RATIO_zscore=3
MOM_RATIO=2
VOL_MA_RATIO=2
RSI_14_rank=2
MOM_RATIO_zscore=2

parameters:
[boosting: gbdt]
[objective: regression]
[metric: rmse,l1]
[tree_learner: serial]
[device_type: cpu]
[data_sample_strategy: bagging]
[data: ]
[valid: ]
[num_iterations: 3000]
[learning_rate: 0.05]
[num_leaves: 31]
[num_threads: 0]
[seed: 42]
[deterministic: 0]
[force_col_wise: 0]
[force_row_wise: 1]
[histogram_pool_size: -1]
[max_depth: -1]
[min_data_in_leaf: 20]
[min_sum_hessian_in_leaf: 0.001]
[bagging_fraction: 0.8]
[pos_bagging_fraction: 1]
[neg_bagging_fraction: 1]
[bagging_freq: 5]
[bagging_seed: 400]
[bagging_by_query: 0]
[feature_fraction: 0.8]
[feature_fraction_bynode: 1]
[feature_fraction_seed: 30056]
[extra_trees: 0]
[extra_seed: 12879]
[early_stopping_round: 0]
[early_stopping_min_delta: 0]
[first_metric_only: 0]
[max_delta_step: 0]
[lambda_l1: 0]
[lambda_l2: 0]
[linear_lambda: 0]
[min_gain_to_split: 0]
[drop_rate: 0.1]
[max_drop: 50]
[skip_drop: 0.5]
[xgboost_dart_mode: 0]
[uniform_drop: 0]
[drop_seed: 17869]
[top_rate: 0.2]
[other_rate: 0.1]
[min_data_per_group: 100]
[max_cat_threshold: 32]
[cat_l2: 10]
[cat_smooth: 10]
[max_cat_to_onehot: 4]
[top_k: 20]
[monotone_constraints: ]
[monotone_constraints_method: basic]
[monotone_penalty: 0]
[feature_contri: ]
[forcedsplits_filename: ]
[refit_decay_rate: 0.9]
[cegb_tradeoff: 1]
[cegb_penalty_split: 0]
[cegb_penalty_feature_lazy: ]
[cegb_penalty_feature_coupled: ]
[path_smooth: 0]
[interaction_constraints: ]
[verbosity: -1]
[saved_feature_importance_type: 0]
[use_quantized_grad: 0]
[num_grad_quant_bins: 4]
[quant_train_renew_leaf: 0]
[stochastic_rounding: 1]
[linear_tree: 0]
[max_bin: 255]
[max_bin_by_feature: ]
[min_data_in_bin: 3]
[bin_construct_sample_cnt: 200000]
[data_random_seed: 175]
[is_enable_sparse: 1]
[enable_bundle: 1]
[use_missing: 1]
[zero_as_missing: 0]
[feature_pre_filter: 1]
[pre_partition: 0]
[two_round: 0]
[header: 0]
[label_column: ]
[weight_column: ]
[group_column: ]
[ignore_column: ]
[categorical_feature: ]
[forcedbins_filename: ]
[precise_float_parser: 0]
[parser_config_file: ]
[objective_seed: 16083]
[num_class: 1]
[is_unbalance: 0]
[scale_pos_weight: 1]
[sigmoid: 1]
[boost_from_average: 1]
[reg_sqrt: 0]
[alpha: 0.9]
[fair_c: 1]
[poisson_max_delta_step: 0.7]
[tweedie_variance_power: 1.5]
[lambdarank_truncation_level: 30]
[lambdarank_norm: 1]
[label_gain: ]
[lambdarank_position_bias_regularization: 0]
[eval_at: ]
[multi_error_top_k: 1]
[auc_mu_weights: ]
[num_machines: 1]
[local_listen_port: 12400]
[time_out: 120]
[machine_list_filename: ]
[machines: ]
[gpu_platform_id: -1]
[gpu_device_id: -1]
[gpu_use_dp: 0]
[num_gpu: 1]

end of parameters

pandas_categorical:null
